{"name":"tree","version":"v4","num_class":1,"num_tree_per_iteration":1,"label_index":0,"max_feature_idx":11,"objective":"binary sigmoid:1","average_output":false,"feature_names":["MarketP","RawP","diff","absdiff","ratio","AvgOdd","logit_market","logit_raw","Month","Code_cat","Market_cat","Side_cat"],"monotone_constraints":[],"feature_infos":{"MarketP":{"min_value":0.0467820258532248,"max_value":0.9248228860411007,"values":[]},"RawP":{"min_value":0.0164282212699955,"max_value":0.9312166314396568,"values":[]},"diff":{"min_value":-0.4984660469972959,"max_value":0.5519232682717022,"values":[]},"absdiff":{"min_value":1.6775690508952226e-07,"max_value":0.5519232682717022,"values":[]},"ratio":{"min_value":0.102722395376617,"max_value":5.560788313803863,"values":[]},"AvgOdd":{"min_value":1.04,"max_value":19.99,"values":[]},"logit_market":{"min_value":-3.01434453549696,"max_value":2.509755395645306,"values":[]},"logit_raw":{"min_value":-4.092189953034129,"max_value":2.6055299573657726,"values":[]},"Month":{"min_value":1,"max_value":12,"values":[]},"Code_cat":{"min_value":-1,"max_value":23,"values":[-1,7,20,19,11,6,12,8,22,4,18,5,16,1,23,0,10,2,14,15,21,17,3,13,9]},"Market_cat":{"min_value":-1,"max_value":1,"values":[-1,0,1]},"Side_cat":{"min_value":-1,"max_value":4,"values":[-1,0,1,2,4,3]}},"tree_info":[{"tree_index":0,"num_leaves":18,"num_cat":1,"shrinkage":1,"tree_structure":{"split_index":0,"split_feature":6,"split_gain":12688.099609375,"threshold":-0.4181941246437272,"decision_type":"<=","default_left":true,"missing_type":"None","internal_value":-0.479782,"internal_weight":38352.6,"internal_count":265592,"left_child":{"split_index":2,"split_feature":6,"split_gain":1542.0999755859375,"threshold":-1.1554728848584894,"decision_type":"<=","default_left":true,"missing_type":"None","internal_value":-0.495132,"internal_weight":21406.8,"internal_count":148154,"left_child":{"split_index":6,"split_feature":5,"split_gain":184.66099548339844,"threshold":6.045000000000001,"decision_type":"<=","default_left":true,"missing_type":"None","internal_value":-0.50746,"internal_weight":6399.79,"internal_count":44110,"left_child":{"split_index":12,"split_feature":0,"split_gain":29.95039939880371,"threshold":0.20181414629137537,"decision_type":"<=","default_left":true,"missing_type":"None","internal_value":-0.504188,"internal_weight":4630.83,"internal_count":31697,"left_child":{"leaf_index":0,"leaf_value":-0.507236781688124,"leaf_weight":1997.0423799604177,"leaf_count":13728},"right_child":{"leaf_index":13,"leaf_value":-0.5017830176369757,"leaf_weight":2633.7895089685917,"leaf_count":17969}},"right_child":{"split_index":14,"split_feature":0,"split_gain":11.275899887084961,"threshold":0.12251994847756227,"decision_type":"<=","default_left":true,"missing_type":"None","internal_value":-0.515852,"internal_weight":1768.95,"internal_count":12413,"left_child":{"leaf_index":7,"leaf_value":-0.5192854073176997,"leaf_weight":891.0843301638961,"leaf_count":6264},"right_child":{"leaf_index":15,"leaf_value":-0.5119912726158908,"leaf_weight":877.8692360967398,"leaf_count":6149}}},"right_child":{"split_index":4,"split_feature":5,"split_gain":345.9620056152344,"threshold":3.055,"decision_type":"<=","default_left":true,"missing_type":"None","internal_value":-0.48986,"internal_weight":15007,"internal_count":104044,"left_child":{"split_index":9,"split_feature":6,"split_gain":47.18519973754883,"threshold":-0.5744950538413363,"decision_type":"<=","default_left":true,"missing_type":"None","internal_value":-0.484324,"internal_weight":6084.04,"internal_count":42215,"left_child":{"leaf_index":3,"leaf_value":-0.4863710673239503,"leaf_weight":3801.1644596755505,"leaf_count":26259},"right_child":{"leaf_index":10,"leaf_value":-0.48088597378230474,"leaf_weight":2282.871661670506,"leaf_count":15956}},"right_child":{"split_index":8,"split_feature":0,"split_gain":53.24850082397461,"threshold":0.277137120698878,"decision_type":"<=","default_left":true,"missing_type":"None","internal_value":-0.493622,"internal_weight":8923.01,"internal_count":61829,"left_child":{"leaf_index":5,"leaf_value":-0.49584919703148156,"leaf_weight":4726.269221164286,"leaf_count":32333},"right_child":{"leaf_index":9,"leaf_value":-0.4910777760332537,"leaf_weight":4196.741600468755,"leaf_count":29496}}}},"right_child":{"split_index":1,"split_feature":0,"split_gain":2072.169921875,"threshold":0.5408996943917532,"decision_type":"<=","default_left":true,"missing_type":"None","internal_value":-0.460393,"internal_weight":16945.8,"internal_count":117438,"left_child":{"split_index":5,"split_feature":6,"split_gain":246.08299255371094,"threshold":-0.10033962637983825,"decision_type":"<=","default_left":true,"missing_type":"None","internal_value":-0.468885,"internal_weight":10257.6,"internal_count":70823,"left_child":{"split_index":11,"split_feature":5,"split_gain":30.59149932861328,"threshold":2.1250000000000004,"decision_type":"<=","default_left":true,"missing_type":"None","internal_value":-0.473017,"internal_weight":5762.45,"internal_count":39965,"left_child":{"leaf_index":1,"leaf_value":-0.4702591487854569,"leaf_weight":2248.30309638381,"leaf_count":15448},"right_child":{"split_index":15,"split_feature":2,"split_gain":10.1427001953125,"threshold":-0.008850417271722248,"decision_type":"<=","default_left":true,"missing_type":"None","internal_value":-0.474812,"internal_weight":3514.14,"internal_count":24517,"left_child":{"split_index":16,"split_feature":9,"split_gain":8.937459945678711,"threshold":"2||5||6||8||11||14||15||17||19||20||22","decision_type":"==","default_left":false,"missing_type":"None","internal_value":-0.473183,"internal_weight":1768.93,"internal_count":12335,"left_child":{"leaf_index":12,"leaf_value":-0.470916681055914,"leaf_weight":861.3837351351976,"leaf_count":6049},"right_child":{"leaf_index":17,"leaf_value":-0.4755850875520425,"leaf_weight":907.5454472973943,"leaf_count":6286}},"right_child":{"leaf_index":16,"leaf_value":-0.4765108027924309,"leaf_weight":1745.2136368975043,"leaf_count":12182}}},"right_child":{"split_index":13,"split_feature":6,"split_gain":24.712900161743164,"threshold":0.01053727031165595,"decision_type":"<=","default_left":true,"missing_type":"None","internal_value":-0.463619,"internal_weight":4495.2,"internal_count":30858,"left_child":{"leaf_index":6,"leaf_value":-0.4663190559285584,"leaf_weight":2006.2755138278008,"leaf_count":13727},"right_child":{"leaf_index":14,"leaf_value":-0.46151041262526077,"leaf_weight":2488.92673522979,"leaf_count":17131}}},"right_child":{"split_index":3,"split_feature":0,"split_gain":486.0429992675781,"threshold":0.639232884340024,"decision_type":"<=","default_left":true,"missing_type":"None","internal_value":-0.447406,"internal_weight":6688.16,"internal_count":46615,"left_child":{"split_index":10,"split_feature":5,"split_gain":39.98680114746094,"threshold":1.6150000000000004,"decision_type":"<=","default_left":true,"missing_type":"None","internal_value":-0.452774,"internal_weight":4702.34,"internal_count":32764,"left_child":{"leaf_index":2,"leaf_value":-0.44944491311585927,"leaf_weight":2116.0740001127124,"leaf_count":14696},"right_child":{"leaf_index":11,"leaf_value":-0.4555996748120998,"leaf_weight":2586.2705298289657,"leaf_count":18068}},"right_child":{"split_index":7,"split_feature":5,"split_gain":74.46260070800781,"threshold":1.3150000000000002,"decision_type":"<=","default_left":true,"missing_type":"None","internal_value":-0.434876,"internal_weight":1985.82,"internal_count":13851,"left_child":{"leaf_index":4,"leaf_value":-0.4256997292985766,"leaf_weight":654.5875840485096,"leaf_count":4535},"right_child":{"leaf_index":8,"leaf_value":-0.43971799046950183,"leaf_weight":1331.2291374877095,"leaf_count":9316}}}}}},{"tree_index":1,"num_leaves":18,"num_cat":0,"shrinkage":0.03,"tree_structure":{"split_index":0,"split_feature":6,"split_gain":11932.099609375,"threshold":-0.4181941246437272,"decision_type":"<=","default_left":true,"missing_type":"None","internal_value":0,"internal_weight":38349.1,"internal_count":265592,"left_child":{"split_index":2,"split_feature":0,"split_gain":1470.9300537109375,"threshold":0.24105216066037188,"decision_type":"<=","default_left":true,"missing_type":"None","internal_value":-0.0149476,"internal_weight":21328.4,"internal_count":148154,"left_child":{"split_index":6,"split_feature":5,"split_gain":184.87600708007812,"threshold":6.045000000000001,"decision_type":"<=","default_left":true,"missing_type":"None","internal_value":-0.026846,"internal_weight":6499.16,"internal_count":45064,"left_child":{"split_index":11,"split_feature":0,"split_gain":31.8174991607666,"threshold":0.20181414629137537,"decision_type":"<=","default_left":true,"missing_type":"None","internal_value":-0.0236551,"internal_weight":4745.62,"internal_count":32651,"left_child":{"leaf_index":0,"leaf_value":-0.026813498430984385,"leaf_weight":1983.825604647398,"leaf_count":13728},"right_child":{"leaf_index":12,"leaf_value":-0.0212992987173955,"leaf_weight":2761.7949931547046,"leaf_count":18923}},"right_child":{"split_index":14,"split_feature":0,"split_gain":10.967700004577637,"threshold":0.12251994847756227,"decision_type":"<=","default_left":true,"missing_type":"None","internal_value":-0.0353092,"internal_weight":1753.54,"internal_count":12413,"left_child":{"leaf_index":7,"leaf_value":-0.038703062011251885,"leaf_weight":882.5125380307436,"leaf_count":6264},"right_child":{"leaf_index":15,"leaf_value":-0.03149838119208495,"leaf_weight":871.0257774889469,"leaf_count":6149}}},"right_child":{"split_index":4,"split_feature":5,"split_gain":319.9320068359375,"threshold":3.055,"decision_type":"<=","default_left":true,"missing_type":"None","internal_value":-0.00971825,"internal_weight":14829.2,"internal_count":103090,"left_child":{"split_index":10,"split_feature":0,"split_gain":44.6781005859375,"threshold":0.3650085949881687,"decision_type":"<=","default_left":true,"missing_type":"None","internal_value":-0.00441118,"internal_weight":6077.51,"internal_count":42215,"left_child":{"leaf_index":3,"leaf_value":-0.006216463204985784,"leaf_weight":4069.7383051216602,"leaf_count":28172},"right_child":{"leaf_index":11,"leaf_value":-0.0007194044244087613,"leaf_weight":2007.7746096998453,"leaf_count":14043}},"right_child":{"split_index":8,"split_feature":0,"split_gain":47.944400787353516,"threshold":0.277137120698878,"decision_type":"<=","default_left":true,"missing_type":"None","internal_value":-0.0133911,"internal_weight":8751.7,"internal_count":60875,"left_child":{"leaf_index":5,"leaf_value":-0.015561842334417129,"leaf_weight":4566.232543259859,"leaf_count":31379},"right_child":{"leaf_index":9,"leaf_value":-0.010987081091485,"leaf_weight":4185.471954874694,"leaf_count":29496}}}},"right_child":{"split_index":1,"split_feature":0,"split_gain":1922.3599853515625,"threshold":0.5408996943917532,"decision_type":"<=","default_left":true,"missing_type":"None","internal_value":0.0187265,"internal_weight":17020.8,"internal_count":117438,"left_child":{"split_index":5,"split_feature":6,"split_gain":229.66400146484375,"threshold":-0.10955368574692574,"decision_type":"<=","default_left":true,"missing_type":"None","internal_value":0.0105461,"internal_weight":10283.5,"internal_count":70823,"left_child":{"split_index":13,"split_feature":5,"split_gain":25.623199462890625,"threshold":2.1250000000000004,"decision_type":"<=","default_left":true,"missing_type":"None","internal_value":0.0064299,"internal_weight":5614.86,"internal_count":38922,"left_child":{"leaf_index":1,"leaf_value":0.009083259455379522,"leaf_weight":2096.6973258033395,"leaf_count":14405},"right_child":{"split_index":15,"split_feature":2,"split_gain":9.521530151367188,"threshold":-0.008850417271722248,"decision_type":"<=","default_left":true,"missing_type":"None","internal_value":0.00481881,"internal_weight":3518.16,"internal_count":24517,"left_child":{"leaf_index":14,"leaf_value":0.006396056299186768,"leaf_weight":1771.6060167849064,"leaf_count":12335},"right_child":{"split_index":16,"split_feature":5,"split_gain":6.8684401512146,"threshold":2.2550000000000003,"decision_type":"<=","default_left":true,"missing_type":"None","internal_value":0.00317142,"internal_weight":1746.55,"internal_count":12182,"left_child":{"leaf_index":16,"leaf_value":0.004839325968026145,"leaf_weight":979.1478827148676,"leaf_count":6744},"right_child":{"leaf_index":17,"leaf_value":0.0009572893438354869,"leaf_weight":767.4058414846659,"leaf_count":5438}}}},"right_child":{"split_index":12,"split_feature":6,"split_gain":25.83839988708496,"threshold":0.01053727031165595,"decision_type":"<=","default_left":true,"missing_type":"None","internal_value":0.0154675,"internal_weight":4668.62,"internal_count":31901,"left_child":{"leaf_index":6,"leaf_value":0.01287638665780462,"leaf_weight":2169.160762421787,"leaf_count":14770},"right_child":{"leaf_index":13,"leaf_value":0.017649962760593208,"leaf_weight":2499.4575961083174,"leaf_count":17131}}},"right_child":{"split_index":3,"split_feature":0,"split_gain":447.4169921875,"threshold":0.6447772824622352,"decision_type":"<=","default_left":true,"missing_type":"None","internal_value":0.0311788,"internal_weight":6737.3,"internal_count":46615,"left_child":{"split_index":9,"split_feature":0,"split_gain":44.837799072265625,"threshold":0.5889886120527686,"decision_type":"<=","default_left":true,"missing_type":"None","internal_value":0.0262957,"internal_weight":4875.97,"internal_count":33768,"left_child":{"leaf_index":2,"leaf_value":0.023593943223388168,"leaf_weight":2849.624486580491,"leaf_count":19614},"right_child":{"leaf_index":10,"leaf_value":0.02996521602274994,"leaf_weight":2026.3416075184941,"leaf_count":14154}},"right_child":{"split_index":7,"split_feature":5,"split_gain":58.14849853515625,"threshold":1.3150000000000002,"decision_type":"<=","default_left":true,"missing_type":"None","internal_value":0.0437793,"internal_weight":1861.33,"internal_count":12847,"left_child":{"leaf_index":4,"leaf_value":0.051849578187978494,"leaf_weight":662.5145411267877,"leaf_count":4535},"right_child":{"leaf_index":8,"leaf_value":0.03896796073113705,"leaf_weight":1198.8163475096226,"leaf_count":8312}}}}}},{"tree_index":2,"num_leaves":18,"num_cat":1,"shrinkage":0.03,"tree_structure":{"split_index":0,"split_feature":5,"split_gain":11225.099609375,"threshold":2.3950000000000005,"decision_type":"<=","default_left":true,"missing_type":"None","internal_value":-7.87922e-07,"internal_weight":38338.5,"internal_count":265592,"left_child":{"split_index":1,"split_feature":0,"split_gain":1838.0400390625,"threshold":0.5408996943917532,"decision_type":"<=","default_left":true,"missing_type":"None","internal_value":0.0178676,"internal_weight":17328.9,"internal_count":118984,"left_child":{"split_index":5,"split_feature":6,"split_gain":227.9969940185547,"threshold":-0.10955368574692574,"decision_type":"<=","default_left":true,"missing_type":"None","internal_value":0.0100146,"internal_weight":10547.4,"internal_count":72369,"left_child":{"split_index":12,"split_feature":5,"split_gain":26.97559928894043,"threshold":2.1250000000000004,"decision_type":"<=","default_left":true,"missing_type":"None","internal_value":0.00604595,"internal_weight":5862.76,"internal_count":40470,"left_child":{"leaf_index":0,"leaf_value":0.008793295460510232,"leaf_weight":2101.0581579878926,"leaf_count":14405},"right_child":{"split_index":15,"split_feature":4,"split_gain":10.791299819946289,"threshold":0.9681863024130424,"decision_type":"<=","default_left":true,"missing_type":"None","internal_value":0.00448411,"internal_weight":3761.7,"internal_count":26065,"left_child":{"leaf_index":13,"leaf_value":0.0061457139723989085,"leaf_weight":1842.523728787899,"leaf_count":12770},"right_child":{"leaf_index":16,"leaf_value":0.0028466340831889278,"leaf_weight":1919.1790237128735,"leaf_count":13295}}},"right_child":{"split_index":13,"split_feature":6,"split_gain":24.05780029296875,"threshold":0.01053727031165595,"decision_type":"<=","default_left":true,"missing_type":"None","internal_value":0.0149528,"internal_weight":4684.63,"internal_count":31899,"left_child":{"leaf_index":6,"leaf_value":0.01245251263295944,"leaf_weight":2175.4092111736536,"leaf_count":14769},"right_child":{"leaf_index":14,"leaf_value":0.01705621059536006,"leaf_weight":2509.218601554632,"leaf_count":17130}}},"right_child":{"split_index":3,"split_feature":0,"split_gain":413.7090148925781,"threshold":0.639232884340024,"decision_type":"<=","default_left":true,"missing_type":"None","internal_value":0.0300488,"internal_weight":6781.53,"internal_count":46615,"left_child":{"split_index":10,"split_feature":5,"split_gain":34.150901794433594,"threshold":1.6150000000000004,"decision_type":"<=","default_left":true,"missing_type":"None","internal_value":0.0251113,"internal_weight":4758.25,"internal_count":32764,"left_child":{"leaf_index":2,"leaf_value":0.028175075805182158,"leaf_weight":2144.117946855724,"leaf_count":14696},"right_child":{"leaf_index":11,"leaf_value":0.022502989349770984,"leaf_weight":2614.1309512481093,"leaf_count":18068}},"right_child":{"split_index":7,"split_feature":5,"split_gain":61.84489822387695,"threshold":1.3150000000000002,"decision_type":"<=","default_left":true,"missing_type":"None","internal_value":0.0414938,"internal_weight":2023.28,"internal_count":13851,"left_child":{"leaf_index":4,"leaf_value":0.0497987649362462,"leaf_weight":669.3252924084663,"leaf_count":4535},"right_child":{"leaf_index":8,"leaf_value":0.03708674957237851,"leaf_weight":1353.9538536593318,"leaf_count":9316}}}},"right_child":{"split_index":2,"split_feature":6,"split_gain":1366.760009765625,"threshold":-1.1554728848584894,"decision_type":"<=","default_left":true,"missing_type":"None","internal_value":-0.0147421,"internal_weight":21009.6,"internal_count":146608,"left_child":{"split_index":6,"split_feature":5,"split_gain":171.4709930419922,"threshold":6.045000000000001,"decision_type":"<=","default_left":true,"missing_type":"None","internal_value":-0.026414,"internal_weight":6313.81,"internal_count":44110,"left_child":{"split_index":11,"split_feature":0,"split_gain":27.493200302124023,"threshold":0.20181414629137537,"decision_type":"<=","default_left":true,"missing_type":"None","internal_value":-0.0232491,"internal_weight":4576.26,"internal_count":31697,"left_child":{"leaf_index":1,"leaf_value":-0.026192510281378787,"leaf_weight":1970.3291198983788,"leaf_count":13728},"right_child":{"leaf_index":12,"leaf_value":-0.020933087451572747,"leaf_weight":2605.9309603124857,"leaf_count":17969}},"right_child":{"split_index":16,"split_feature":0,"split_gain":10.71399974822998,"threshold":0.12251994847756227,"decision_type":"<=","default_left":true,"missing_type":"None","internal_value":-0.0345788,"internal_weight":1737.55,"internal_count":12413,"left_child":{"leaf_index":7,"leaf_value":-0.037938911480065556,"leaf_weight":873.5756775215268,"leaf_count":6264},"right_child":{"leaf_index":17,"leaf_value":-0.030812817180121205,"leaf_weight":863.9785081669688,"leaf_count":6149}}},"right_child":{"split_index":4,"split_feature":5,"split_gain":286.2080078125,"threshold":3.055,"decision_type":"<=","default_left":true,"missing_type":"None","internal_value":-0.00971284,"internal_weight":14695.8,"internal_count":102498,"left_child":{"split_index":9,"split_feature":6,"split_gain":34.48550033569336,"threshold":-0.5744950538413363,"decision_type":"<=","default_left":true,"missing_type":"None","internal_value":-0.00453057,"internal_weight":5831.61,"internal_count":40669,"left_child":{"leaf_index":3,"leaf_value":-0.006224857602270701,"leaf_weight":3789.5775361061096,"leaf_count":26259},"right_child":{"split_index":14,"split_feature":9,"split_gain":13.772000312805176,"threshold":"0||1||5||10||12||14||17||20||23","decision_type":"==","default_left":false,"missing_type":"None","internal_value":-0.00135235,"internal_weight":2042.03,"internal_count":14410,"left_child":{"leaf_index":10,"leaf_value":-0.0042862120926808675,"leaf_weight":830.8875296190381,"leaf_count":5803},"right_child":{"leaf_index":15,"leaf_value":0.0006680597038376553,"leaf_weight":1211.1466337963939,"leaf_count":8607}}},"right_child":{"split_index":8,"split_feature":6,"split_gain":48.37699890136719,"threshold":-0.9887362679077486,"decision_type":"<=","default_left":true,"missing_type":"None","internal_value":-0.0131099,"internal_weight":8864.2,"internal_count":61829,"left_child":{"leaf_index":5,"leaf_value":-0.015712536160344525,"leaf_weight":3816.3918684199452,"leaf_count":26209},"right_child":{"leaf_index":9,"leaf_value":-0.011111601028015432,"leaf_weight":5047.809225425124,"leaf_count":35620}}}}}},{"tree_index":3,"num_leaves":18,"num_cat":0,"shrinkage":0.03,"tree_structure":{"split_index":0,"split_feature":6,"split_gain":10562.7001953125,"threshold":-0.4276182766599819,"decision_type":"<=","default_left":true,"missing_type":"None","internal_value":-1.74438e-06,"internal_weight":38321.5,"internal_count":265592,"left_child":{"split_index":2,"split_feature":6,"split_gain":1316.4000244140625,"threshold":-1.1554728848584894,"decision_type":"<=","default_left":true,"missing_type":"None","internal_value":-0.0142983,"internal_weight":21008.8,"internal_count":147053,"left_child":{"split_index":6,"split_feature":5,"split_gain":165.63299560546875,"threshold":6.045000000000001,"decision_type":"<=","default_left":true,"missing_type":"None","internal_value":-0.0258107,"internal_weight":6269.43,"internal_count":44110,"left_child":{"split_index":12,"split_feature":0,"split_gain":26.40690040588379,"threshold":0.20181414629137537,"decision_type":"<=","default_left":true,"missing_type":"None","internal_value":-0.0226947,"internal_weight":4548.35,"internal_count":31697,"left_child":{"leaf_index":0,"leaf_value":-0.025590201644043915,"leaf_weight":1956.6007513552904,"leaf_count":13728},"right_child":{"leaf_index":13,"leaf_value":-0.020419467977008828,"leaf_weight":2591.752884335816,"leaf_count":17969}},"right_child":{"split_index":15,"split_feature":0,"split_gain":10.506400108337402,"threshold":0.12251994847756227,"decision_type":"<=","default_left":true,"missing_type":"None","internal_value":-0.0338763,"internal_weight":1721.08,"internal_count":12413,"left_child":{"leaf_index":7,"leaf_value":-0.03720759401324036,"leaf_weight":864.3210597410798,"leaf_count":6264},"right_child":{"leaf_index":16,"leaf_value":-0.030150395992239176,"leaf_weight":856.7574227675796,"leaf_count":6149}}},"right_child":{"split_index":4,"split_feature":5,"split_gain":278.6199951171875,"threshold":3.055,"decision_type":"<=","default_left":true,"missing_type":"None","internal_value":-0.00938709,"internal_weight":14739.4,"internal_count":102943,"left_child":{"split_index":10,"split_feature":6,"split_gain":34.86040115356445,"threshold":-0.5744950538413363,"decision_type":"<=","default_left":true,"missing_type":"None","internal_value":-0.00432176,"internal_weight":5904.35,"internal_count":41114,"left_child":{"leaf_index":3,"leaf_value":-0.006047764614971502,"leaf_weight":3783.8520646989346,"leaf_count":26259},"right_child":{"leaf_index":11,"leaf_value":-0.0012095343793733318,"leaf_weight":2120.493698976934,"leaf_count":14855}},"right_child":{"split_index":8,"split_feature":0,"split_gain":46.09859848022461,"threshold":0.277137120698878,"decision_type":"<=","default_left":true,"missing_type":"None","internal_value":-0.0127601,"internal_weight":8835.04,"internal_count":61829,"left_child":{"leaf_index":5,"leaf_value":-0.014846778262458516,"leaf_weight":4672.247940160334,"leaf_count":32333},"right_child":{"leaf_index":9,"leaf_value":-0.010383334736538127,"leaf_weight":4162.788060545921,"leaf_count":29496}}}},"right_child":{"split_index":1,"split_feature":0,"split_gain":1694.780029296875,"threshold":0.5408996943917532,"decision_type":"<=","default_left":true,"missing_type":"None","internal_value":0.0173431,"internal_weight":17312.6,"internal_count":118539,"left_child":{"split_index":5,"split_feature":6,"split_gain":208.9499969482422,"threshold":-0.10033962637983825,"decision_type":"<=","default_left":true,"missing_type":"None","internal_value":0.00975607,"internal_weight":10491.4,"internal_count":71924,"left_child":{"split_index":11,"split_feature":5,"split_gain":26.94729995727539,"threshold":2.1250000000000004,"decision_type":"<=","default_left":true,"missing_type":"None","internal_value":0.00603081,"internal_weight":5949,"internal_count":41066,"left_child":{"leaf_index":1,"leaf_value":0.008630858969029867,"leaf_weight":2262.7076455131173,"leaf_count":15448},"right_child":{"split_index":14,"split_feature":2,"split_gain":11.666600227355957,"threshold":-0.008850417271722248,"decision_type":"<=","default_left":true,"missing_type":"None","internal_value":0.00440744,"internal_weight":3686.29,"internal_count":25618,"left_child":{"leaf_index":12,"leaf_value":0.006100927395556245,"leaf_weight":1856.5441062897444,"leaf_count":12882},"right_child":{"split_index":16,"split_feature":5,"split_gain":9.072759628295898,"threshold":2.2550000000000003,"decision_type":"<=","default_left":true,"missing_type":"None","internal_value":0.00264558,"internal_weight":1829.75,"internal_count":12736,"left_child":{"leaf_index":15,"leaf_value":0.0046022617674502135,"leaf_weight":980.8956526219845,"leaf_count":6744},"right_child":{"leaf_index":17,"leaf_value":0.0003101443261218992,"leaf_weight":848.8513253182173,"leaf_count":5992}}}},"right_child":{"split_index":13,"split_feature":6,"split_gain":19.690500259399414,"threshold":0.01053727031165595,"decision_type":"<=","default_left":true,"missing_type":"None","internal_value":0.0146058,"internal_weight":4542.44,"internal_count":30858,"left_child":{"leaf_index":6,"leaf_value":0.01219200050596454,"leaf_weight":2023.9577720537782,"leaf_count":13727},"right_child":{"leaf_index":14,"leaf_value":0.01648305788382828,"leaf_weight":2518.4828344881535,"leaf_count":17131}}},"right_child":{"split_index":3,"split_feature":0,"split_gain":383.4230041503906,"threshold":0.6447772824622352,"decision_type":"<=","default_left":true,"missing_type":"None","internal_value":0.0289806,"internal_weight":6821.21,"internal_count":46615,"left_child":{"split_index":9,"split_feature":0,"split_gain":38.515899658203125,"threshold":0.5889886120527686,"decision_type":"<=","default_left":true,"missing_type":"None","internal_value":0.0244737,"internal_weight":4929.08,"internal_count":33768,"left_child":{"leaf_index":2,"leaf_value":0.021973713442375118,"leaf_weight":2878.002166777849,"leaf_count":19614},"right_child":{"leaf_index":10,"leaf_value":0.02786070552918059,"leaf_weight":2051.077523075044,"leaf_count":14154}},"right_child":{"split_index":7,"split_feature":0,"split_gain":51.172298431396484,"threshold":0.7477084316378789,"decision_type":"<=","default_left":true,"missing_type":"None","internal_value":0.0405452,"internal_weight":1892.13,"internal_count":12847,"left_child":{"leaf_index":4,"leaf_value":0.037179925206667574,"leaf_weight":1453.3364210501313,"leaf_count":9862},"right_child":{"leaf_index":8,"leaf_value":0.050725599028345336,"leaf_weight":438.79164189845324,"leaf_count":2985}}}}}},{"tree_index":4,"num_leaves":18,"num_cat":2,"shrinkage":0.03,"tree_structure":{"split_index":0,"split_feature":5,"split_gain":9942.3896484375,"threshold":2.3950000000000005,"decision_type":"<=","default_left":true,"missing_type":"None","internal_value":-2.5051e-06,"internal_weight":38298.5,"internal_count":265592,"left_child":{"split_index":1,"split_feature":0,"split_gain":1594.3900146484375,"threshold":0.5408996943917532,"decision_type":"<=","default_left":true,"missing_type":"None","internal_value":0.0167008,"internal_weight":17449,"internal_count":118984,"left_child":{"split_index":5,"split_feature":6,"split_gain":199.23199462890625,"threshold":-0.10955368574692574,"decision_type":"<=","default_left":true,"missing_type":"None","internal_value":0.00938669,"internal_weight":10592.3,"internal_count":72369,"left_child":{"split_index":12,"split_feature":5,"split_gain":23.541500091552734,"threshold":2.1250000000000004,"decision_type":"<=","default_left":true,"missing_type":"None","internal_value":0.00567723,"internal_weight":5878.34,"internal_count":40470,"left_child":{"leaf_index":0,"leaf_value":0.008239659946864396,"leaf_weight":2109.2175879627466,"leaf_count":14405},"right_child":{"leaf_index":13,"leaf_value":0.004216952915610228,"leaf_weight":3769.1185161471367,"leaf_count":26065}},"right_child":{"split_index":13,"split_feature":6,"split_gain":20.781600952148438,"threshold":0.01053727031165595,"decision_type":"<=","default_left":true,"missing_type":"None","internal_value":0.0139854,"internal_weight":4713.95,"internal_count":31899,"left_child":{"leaf_index":6,"leaf_value":0.01165991174077266,"leaf_weight":2186.9638572111726,"leaf_count":14769},"right_child":{"leaf_index":14,"leaf_value":0.015937161083247525,"leaf_weight":2526.9838814362884,"leaf_count":17130}}},"right_child":{"split_index":3,"split_feature":0,"split_gain":357.0870056152344,"threshold":0.639232884340024,"decision_type":"<=","default_left":true,"missing_type":"None","internal_value":0.0279689,"internal_weight":6856.69,"internal_count":46615,"left_child":{"split_index":10,"split_feature":5,"split_gain":29.438800811767578,"threshold":1.6150000000000004,"decision_type":"<=","default_left":true,"missing_type":"None","internal_value":0.0233958,"internal_weight":4804.96,"internal_count":32764,"left_child":{"leaf_index":2,"leaf_value":0.026231672547331775,"leaf_weight":2167.21554325521,"leaf_count":14696},"right_child":{"leaf_index":11,"leaf_value":0.020976472467713357,"leaf_weight":2637.7475685551763,"leaf_count":18068}},"right_child":{"split_index":7,"split_feature":5,"split_gain":53.95109939575195,"threshold":1.3150000000000002,"decision_type":"<=","default_left":true,"missing_type":"None","internal_value":0.0385245,"internal_weight":2051.73,"internal_count":13851,"left_child":{"leaf_index":4,"leaf_value":0.04622426200619063,"leaf_weight":679.7542412802577,"leaf_count":4535},"right_child":{"leaf_index":8,"leaf_value":0.03443117153232653,"leaf_weight":1371.9721435457468,"leaf_count":9316}}}},"right_child":{"split_index":2,"split_feature":6,"split_gain":1246.1700439453125,"threshold":-1.1554728848584894,"decision_type":"<=","default_left":true,"missing_type":"None","internal_value":-0.0139847,"internal_weight":20849.5,"internal_count":146608,"left_child":{"split_index":6,"split_feature":5,"split_gain":160.19900512695312,"threshold":6.045000000000001,"decision_type":"<=","default_left":true,"missing_type":"None","internal_value":-0.0252254,"internal_weight":6224.36,"internal_count":44110,"left_child":{"split_index":11,"split_feature":0,"split_gain":25.385700225830078,"threshold":0.20181414629137537,"decision_type":"<=","default_left":true,"missing_type":"None","internal_value":-0.0221557,"internal_weight":4520.18,"internal_count":31697,"left_child":{"leaf_index":1,"leaf_value":-0.025005446747233814,"leaf_weight":1942.6848361715674,"leaf_count":13728},"right_child":{"leaf_index":12,"leaf_value":-0.01991971644340397,"leaf_weight":2577.491182640195,"leaf_count":17969}},"right_child":{"split_index":16,"split_feature":0,"split_gain":10.337800025939941,"threshold":0.12251994847756227,"decision_type":"<=","default_left":true,"missing_type":"None","internal_value":-0.0331995,"internal_weight":1704.18,"internal_count":12413,"left_child":{"leaf_index":7,"leaf_value":-0.03650642228844491,"leaf_weight":854.7924567982554,"leaf_count":6264},"right_child":{"leaf_index":17,"leaf_value":-0.02950948627651248,"leaf_weight":849.3900924623013,"leaf_count":6149}}},"right_child":{"split_index":4,"split_feature":5,"split_gain":256.8280029296875,"threshold":3.055,"decision_type":"<=","default_left":true,"missing_type":"None","internal_value":-0.00918648,"internal_weight":14625.1,"internal_count":102498,"left_child":{"split_index":9,"split_feature":6,"split_gain":30.59469985961914,"threshold":-0.5744950538413363,"decision_type":"<=","default_left":true,"missing_type":"None","internal_value":-0.00427584,"internal_weight":5819.09,"internal_count":40669,"left_child":{"leaf_index":3,"leaf_value":-0.005875556950331542,"leaf_weight":3778.2317805588245,"leaf_count":26259},"right_child":{"split_index":14,"split_feature":9,"split_gain":12.962400436401367,"threshold":"0||1||5||10||12||14||17||20||23","decision_type":"==","default_left":false,"missing_type":"None","internal_value":-0.00128095,"internal_weight":2040.86,"internal_count":14410,"left_child":{"leaf_index":10,"leaf_value":-0.004130486705820547,"leaf_weight":829.8035789951682,"leaf_count":5803},"right_child":{"leaf_index":15,"leaf_value":0.0006772304204383442,"leaf_weight":1211.0568856969476,"leaf_count":8607}}},"right_child":{"split_index":8,"split_feature":0,"split_gain":44.20309829711914,"threshold":0.2668544644598551,"decision_type":"<=","default_left":true,"missing_type":"None","internal_value":-0.0124195,"internal_weight":8806.04,"internal_count":61829,"left_child":{"leaf_index":5,"leaf_value":-0.015322496042080136,"leaf_weight":3160.250217743218,"leaf_count":21867},"right_child":{"split_index":15,"split_feature":11,"split_gain":10.97819995880127,"threshold":"1||3","decision_type":"==","default_left":false,"missing_type":"None","internal_value":-0.0107672,"internal_weight":5645.79,"internal_count":39962,"left_child":{"leaf_index":9,"leaf_value":-0.009550445785179313,"leaf_weight":3673.1334275603294,"leaf_count":26146},"right_child":{"leaf_index":16,"leaf_value":-0.012849430204363032,"leaf_weight":1972.6545920222998,"leaf_count":13816}}}}}}},{"tree_index":5,"num_leaves":18,"num_cat":1,"shrinkage":0.03,"tree_structure":{"split_index":0,"split_feature":6,"split_gain":9359.1796875,"threshold":-0.4276182766599819,"decision_type":"<=","default_left":true,"missing_type":"None","internal_value":-3.62502e-06,"internal_weight":38270.3,"internal_count":265592,"left_child":{"split_index":2,"split_feature":6,"split_gain":1200.9300537109375,"threshold":-1.1554728848584894,"decision_type":"<=","default_left":true,"missing_type":"None","internal_value":-0.0135645,"internal_weight":20848.2,"internal_count":147053,"left_child":{"split_index":6,"split_feature":6,"split_gain":154.4199981689453,"threshold":-1.5846667917494788,"decision_type":"<=","default_left":true,"missing_type":"None","internal_value":-0.024657,"internal_weight":6178.73,"internal_count":44110,"left_child":{"split_index":11,"split_feature":0,"split_gain":23.077999114990234,"threshold":0.12251994847756227,"decision_type":"<=","default_left":true,"missing_type":"None","internal_value":-0.0312444,"internal_weight":2156.11,"internal_count":15773,"left_child":{"leaf_index":0,"leaf_value":-0.03583297825635913,"leaf_weight":845.0302035212517,"leaf_count":6264},"right_child":{"leaf_index":12,"leaf_value":-0.028053422899417948,"leaf_weight":1311.0776171907783,"leaf_count":9509}},"right_child":{"split_index":14,"split_feature":0,"split_gain":13.440400123596191,"threshold":0.20181414629137537,"decision_type":"<=","default_left":true,"missing_type":"None","internal_value":-0.0210599,"internal_weight":4022.62,"internal_count":28337,"left_child":{"leaf_index":7,"leaf_value":-0.02376475691007627,"leaf_weight":1459.446199953556,"leaf_count":10368},"right_child":{"leaf_index":15,"leaf_value":-0.019433199702255596,"leaf_weight":2563.178098961711,"leaf_count":17969}}},"right_child":{"split_index":4,"split_feature":0,"split_gain":248.9929962158203,"threshold":0.31058604494860176,"decision_type":"<=","default_left":true,"missing_type":"None","internal_value":-0.00887845,"internal_weight":14669.5,"internal_count":102943,"left_child":{"split_index":8,"split_feature":0,"split_gain":47.0620002746582,"threshold":0.277137120698878,"decision_type":"<=","default_left":true,"missing_type":"None","internal_value":-0.0119471,"internal_weight":9077.66,"internal_count":63790,"left_child":{"leaf_index":3,"leaf_value":-0.014098185861866137,"leaf_weight":4637.040286660194,"leaf_count":32333},"right_child":{"leaf_index":9,"leaf_value":-0.009669376079325257,"leaf_weight":4440.620022751391,"leaf_count":31457}},"right_child":{"split_index":9,"split_feature":0,"split_gain":28.11829948425293,"threshold":0.3650085949881687,"decision_type":"<=","default_left":true,"missing_type":"None","internal_value":-0.00387892,"internal_weight":5591.81,"internal_count":39153,"left_child":{"split_index":15,"split_feature":9,"split_gain":11.033699989318848,"threshold":"1||4||5||6||8||9||11||18||19||20||22","decision_type":"==","default_left":false,"missing_type":"None","internal_value":-0.0053724,"internal_weight":3745.22,"internal_count":26206,"left_child":{"leaf_index":5,"leaf_value":-0.007098836012450031,"leaf_weight":1811.9531548693776,"leaf_count":12911},"right_child":{"leaf_index":16,"leaf_value":-0.00365314308916086,"leaf_weight":1933.2648696899414,"leaf_count":13295}},"right_child":{"leaf_index":10,"leaf_value":-0.0008155017568065631,"leaf_weight":1846.5889006406069,"leaf_count":12947}}}},"right_child":{"split_index":1,"split_feature":0,"split_gain":1474.050048828125,"threshold":0.5408996943917532,"decision_type":"<=","default_left":true,"missing_type":"None","internal_value":0.0162203,"internal_weight":17422.1,"internal_count":118539,"left_child":{"split_index":5,"split_feature":6,"split_gain":182.79200744628906,"threshold":-0.10033962637983825,"decision_type":"<=","default_left":true,"missing_type":"None","internal_value":0.0091461,"internal_weight":10533.8,"internal_count":71924,"left_child":{"split_index":12,"split_feature":0,"split_gain":21.303800582885742,"threshold":0.41954219571275886,"decision_type":"<=","default_left":true,"missing_type":"None","internal_value":0.00566227,"internal_weight":5964.57,"internal_count":41066,"left_child":{"split_index":16,"split_feature":2,"split_gain":9.92788028717041,"threshold":-0.008850417271722248,"decision_type":"<=","default_left":true,"missing_type":"None","internal_value":0.00288875,"internal_weight":1814.05,"internal_count":12503,"left_child":{"leaf_index":1,"leaf_value":0.005085956410270851,"leaf_weight":913.119291394949,"leaf_count":6259},"right_child":{"leaf_index":17,"leaf_value":0.000587151446097754,"leaf_weight":900.931458555162,"leaf_count":6244}},"right_child":{"leaf_index":13,"leaf_value":0.006855769914534337,"leaf_weight":4150.518883742392,"leaf_count":28563}},"right_child":{"split_index":13,"split_feature":6,"split_gain":17.00589942932129,"threshold":0.01053727031165595,"decision_type":"<=","default_left":true,"missing_type":"None","internal_value":0.0136661,"internal_weight":4569.25,"internal_count":30858,"left_child":{"leaf_index":6,"leaf_value":0.011419991264741702,"leaf_weight":2034.183722987771,"leaf_count":13727},"right_child":{"leaf_index":14,"leaf_value":0.0154091691193281,"leaf_weight":2535.0674580410123,"leaf_count":17131}}},"right_child":{"split_index":3,"split_feature":0,"split_gain":332.86700439453125,"threshold":0.639232884340024,"decision_type":"<=","default_left":true,"missing_type":"None","internal_value":0.0270087,"internal_weight":6888.25,"internal_count":46615,"left_child":{"split_index":10,"split_feature":0,"split_gain":27.44070053100586,"threshold":0.5889886120527686,"decision_type":"<=","default_left":true,"missing_type":"None","internal_value":0.0226,"internal_weight":4825.21,"internal_count":32764,"left_child":{"leaf_index":2,"leaf_value":0.02049828983480247,"leaf_weight":2901.967614479363,"leaf_count":19614},"right_child":{"leaf_index":11,"leaf_value":0.025649781796478702,"leaf_weight":1923.2445212453604,"leaf_count":13150}},"right_child":{"split_index":7,"split_feature":0,"split_gain":51.24879837036133,"threshold":0.7477084316378789,"decision_type":"<=","default_left":true,"missing_type":"None","internal_value":0.0371715,"internal_weight":2063.03,"internal_count":13851,"left_child":{"leaf_index":4,"leaf_value":0.03416174950403406,"leaf_weight":1618.379119090736,"leaf_count":10866},"right_child":{"leaf_index":8,"leaf_value":0.0472293249887684,"leaf_weight":444.6541407778859,"leaf_count":2985}}}}}},{"tree_index":6,"num_leaves":18,"num_cat":0,"shrinkage":0.03,"tree_structure":{"split_index":0,"split_feature":6,"split_gain":8814.7197265625,"threshold":-0.45676551044031866,"decision_type":"<=","default_left":true,"missing_type":"None","internal_value":-4.429610000000001e-06,"internal_weight":38237.2,"internal_count":265592,"left_child":{"split_index":2,"split_feature":6,"split_gain":1091.75,"threshold":-1.1554728848584894,"decision_type":"<=","default_left":true,"missing_type":"None","internal_value":-0.013529,"internal_weight":20319.6,"internal_count":143878,"left_child":{"split_index":6,"split_feature":5,"split_gain":150.72300720214844,"threshold":6.045000000000001,"decision_type":"<=","default_left":true,"missing_type":"None","internal_value":-0.0241044,"internal_weight":6132.68,"internal_count":44110,"left_child":{"split_index":12,"split_feature":0,"split_gain":23.411399841308594,"threshold":0.20181414629137537,"decision_type":"<=","default_left":true,"missing_type":"None","internal_value":-0.0211172,"internal_weight":4463.07,"internal_count":31697,"left_child":{"leaf_index":0,"leaf_value":-0.02387624930045515,"leaf_weight":1914.229436993599,"leaf_count":13728},"right_child":{"leaf_index":13,"leaf_value":-0.018959340488366797,"leaf_weight":2548.8431831747293,"leaf_count":17969}},"right_child":{"split_index":16,"split_feature":0,"split_gain":9.979780197143555,"threshold":0.12251994847756227,"decision_type":"<=","default_left":true,"missing_type":"None","internal_value":-0.0319237,"internal_weight":1669.61,"internal_count":12413,"left_child":{"leaf_index":7,"leaf_value":-0.035185074044331306,"leaf_weight":835.0715407803655,"leaf_count":6264},"right_child":{"leaf_index":17,"leaf_value":-0.028303772882086332,"leaf_weight":834.5395775213838,"leaf_count":6149}}},"right_child":{"split_index":4,"split_feature":6,"split_gain":202.89300537109375,"threshold":-0.8510346092265441,"decision_type":"<=","default_left":true,"missing_type":"None","internal_value":-0.00894333,"internal_weight":14186.9,"internal_count":99768,"left_child":{"split_index":9,"split_feature":0,"split_gain":30.158700942993164,"threshold":0.2668544644598551,"decision_type":"<=","default_left":true,"missing_type":"None","internal_value":-0.0122191,"internal_weight":7743.6,"internal_count":54546,"left_child":{"leaf_index":3,"leaf_value":-0.014561128173532441,"leaf_weight":3135.109229505062,"leaf_count":21867},"right_child":{"split_index":14,"split_feature":2,"split_gain":13.44789981842041,"threshold":0.03623811242258356,"decision_type":"<=","default_left":true,"missing_type":"None","internal_value":-0.0105937,"internal_weight":4608.49,"internal_count":32679,"left_child":{"split_index":15,"split_feature":1,"split_gain":12.72070026397705,"threshold":0.3135230161349372,"decision_type":"<=","default_left":true,"missing_type":"None","internal_value":-0.00964261,"internal_weight":3598.1,"internal_count":25598,"left_child":{"leaf_index":10,"leaf_value":-0.01006994852711632,"leaf_weight":3405.1916373223066,"leaf_count":24240},"right_child":{"leaf_index":16,"leaf_value":-0.0017746423225267606,"leaf_weight":192.9047987088561,"leaf_count":1358}},"right_child":{"leaf_index":15,"leaf_value":-0.01383396361258802,"leaf_weight":1010.3918814212084,"leaf_count":7081}}},"right_child":{"split_index":10,"split_feature":6,"split_gain":26.19930076599121,"threshold":-0.5744950538413363,"decision_type":"<=","default_left":true,"missing_type":"None","internal_value":-0.0049892,"internal_weight":6443.31,"internal_count":45222,"left_child":{"leaf_index":5,"leaf_value":-0.006124181812927871,"leaf_weight":4771.509680196643,"leaf_count":33536},"right_child":{"leaf_index":11,"leaf_value":-0.0017093224658337762,"leaf_weight":1671.8016858026385,"leaf_count":11686}}}},"right_child":{"split_index":1,"split_feature":0,"split_gain":1451.52001953125,"threshold":0.5408996943917532,"decision_type":"<=","default_left":true,"missing_type":"None","internal_value":0.0153299,"internal_weight":17917.6,"internal_count":121714,"left_child":{"split_index":5,"split_feature":6,"split_gain":191.19500732421875,"threshold":-0.10955368574692574,"decision_type":"<=","default_left":true,"missing_type":"None","internal_value":0.00854347,"internal_weight":11001.4,"internal_count":75099,"left_child":{"split_index":11,"split_feature":0,"split_gain":25.74209976196289,"threshold":0.41954219571275886,"decision_type":"<=","default_left":true,"missing_type":"None","internal_value":0.00508056,"internal_weight":6261.57,"internal_count":43198,"left_child":{"leaf_index":1,"leaf_value":0.0024792693750837207,"leaf_weight":2263.284141756594,"leaf_count":15678},"right_child":{"leaf_index":12,"leaf_value":0.006533936817278309,"leaf_weight":3998.284845098853,"leaf_count":27520}},"right_child":{"split_index":13,"split_feature":6,"split_gain":17.930500030517578,"threshold":0.01053727031165595,"decision_type":"<=","default_left":true,"missing_type":"None","internal_value":0.0130924,"internal_weight":4739.85,"internal_count":31901,"left_child":{"leaf_index":6,"leaf_value":0.010929415040009695,"leaf_weight":2197.3101982176304,"leaf_count":14770},"right_child":{"leaf_index":14,"leaf_value":0.014903884046266804,"leaf_weight":2542.5381121337414,"leaf_count":17131}}},"right_child":{"split_index":3,"split_feature":0,"split_gain":311.78399658203125,"threshold":0.6447772824622352,"decision_type":"<=","default_left":true,"missing_type":"None","internal_value":0.026096,"internal_weight":6916.2,"internal_count":46615,"left_child":{"split_index":8,"split_feature":0,"split_gain":30.9330997467041,"threshold":0.5889886120527686,"decision_type":"<=","default_left":true,"missing_type":"None","internal_value":0.0220504,"internal_weight":4992.38,"internal_count":33768,"left_child":{"leaf_index":2,"leaf_value":0.019812703513596045,"leaf_weight":2912.4267360046506,"leaf_count":19614},"right_child":{"leaf_index":9,"leaf_value":0.02507417881289398,"leaf_weight":2079.9560282975435,"leaf_count":14154}},"right_child":{"split_index":7,"split_feature":0,"split_gain":42.39830017089844,"threshold":0.7477084316378789,"decision_type":"<=","default_left":true,"missing_type":"None","internal_value":0.0364365,"internal_weight":1923.82,"internal_count":12847,"left_child":{"leaf_index":4,"leaf_value":0.03339778982989735,"leaf_weight":1477.0287746861577,"leaf_count":9862},"right_child":{"leaf_index":8,"leaf_value":0.04561891690538428,"leaf_weight":446.7884984090924,"leaf_count":2985}}}}}},{"tree_index":7,"num_leaves":18,"num_cat":0,"shrinkage":0.03,"tree_structure":{"split_index":0,"split_feature":6,"split_gain":8301.9296875,"threshold":-0.45676551044031866,"decision_type":"<=","default_left":true,"missing_type":"None","internal_value":-5.25647e-06,"internal_weight":38199.9,"internal_count":265592,"left_child":{"split_index":2,"split_feature":6,"split_gain":1043.81005859375,"threshold":-1.1554728848584894,"decision_type":"<=","default_left":true,"missing_type":"None","internal_value":-0.0131789,"internal_weight":20239.1,"internal_count":143878,"left_child":{"split_index":5,"split_feature":5,"split_gain":146.22300720214844,"threshold":6.045000000000001,"decision_type":"<=","default_left":true,"missing_type":"None","internal_value":-0.0235668,"internal_weight":6086.33,"internal_count":44110,"left_child":{"split_index":11,"split_feature":0,"split_gain":22.622699737548828,"threshold":0.19898026744158812,"decision_type":"<=","default_left":true,"missing_type":"None","internal_value":-0.0206202,"internal_weight":4434.49,"internal_count":31697,"left_child":{"leaf_index":0,"leaf_value":-0.02353301732082532,"leaf_weight":1756.1496813371778,"leaf_count":12683},"right_child":{"leaf_index":12,"leaf_value":-0.018629105745906108,"leaf_weight":2678.3442244902253,"leaf_count":19014}},"right_child":{"split_index":16,"split_feature":0,"split_gain":9.900309562683105,"threshold":0.12251994847756227,"decision_type":"<=","default_left":true,"missing_type":"None","internal_value":-0.0313129,"internal_weight":1651.83,"internal_count":12413,"left_child":{"leaf_index":6,"leaf_value":-0.03456072457725852,"leaf_weight":824.950850315392,"leaf_count":6264},"right_child":{"leaf_index":17,"leaf_value":-0.027718543157687767,"leaf_weight":826.8802855983377,"leaf_count":6149}}},"right_child":{"split_index":4,"split_feature":6,"split_gain":192.39500427246094,"threshold":-0.8510346092265441,"decision_type":"<=","default_left":true,"missing_type":"None","internal_value":-0.00869766,"internal_weight":14152.7,"internal_count":99768,"left_child":{"split_index":9,"split_feature":0,"split_gain":28.667200088500977,"threshold":0.2668544644598551,"decision_type":"<=","default_left":true,"missing_type":"None","internal_value":-0.0118949,"internal_weight":7717.61,"internal_count":54546,"left_child":{"leaf_index":3,"leaf_value":-0.01418419756020788,"leaf_weight":3122.278555691242,"leaf_count":21867},"right_child":{"split_index":13,"split_feature":2,"split_gain":12.766200065612793,"threshold":0.03623811242258356,"decision_type":"<=","default_left":true,"missing_type":"None","internal_value":-0.0103076,"internal_weight":4595.33,"internal_count":32679,"left_child":{"split_index":15,"split_feature":1,"split_gain":12.01039981842041,"threshold":0.3135230161349372,"decision_type":"<=","default_left":true,"missing_type":"None","internal_value":-0.00937924,"internal_weight":3588.73,"internal_count":25598,"left_child":{"leaf_index":10,"leaf_value":-0.009795577355935527,"leaf_weight":3395.919556826353,"leaf_count":24240},"right_child":{"leaf_index":16,"leaf_value":-0.0017243159040874864,"leaf_weight":192.8138484954834,"leaf_count":1358}},"right_child":{"leaf_index":14,"leaf_value":-0.01347322316885813,"leaf_weight":1006.5939360707998,"leaf_count":7081}}},"right_child":{"split_index":10,"split_feature":6,"split_gain":24.722000122070312,"threshold":-0.5744950538413363,"decision_type":"<=","default_left":true,"missing_type":"None","internal_value":-0.00484628,"internal_weight":6435.13,"internal_count":45222,"left_child":{"leaf_index":5,"leaf_value":-0.005950241824845363,"leaf_weight":4764.012444011867,"leaf_count":33536},"right_child":{"leaf_index":11,"leaf_value":-0.0016589737875433981,"leaf_weight":1671.1167784258723,"leaf_count":11686}}}},"right_child":{"split_index":1,"split_feature":6,"split_gain":1359.0400390625,"threshold":0.12146330958399161,"decision_type":"<=","default_left":true,"missing_type":"None","internal_value":0.0148362,"internal_weight":17960.8,"internal_count":121714,"left_child":{"split_index":6,"split_feature":5,"split_gain":139.09500122070312,"threshold":2.015,"decision_type":"<=","default_left":true,"missing_type":"None","internal_value":0.0077316,"internal_weight":10334.9,"internal_count":70441,"left_child":{"split_index":14,"split_feature":5,"split_gain":12.340100288391113,"threshold":1.925,"decision_type":"<=","default_left":true,"missing_type":"None","internal_value":0.0118007,"internal_weight":4371.99,"internal_count":29173,"left_child":{"leaf_index":1,"leaf_value":0.013103345845957601,"leaf_weight":2754.398406304419,"leaf_count":18188},"right_child":{"leaf_index":15,"leaf_value":0.009501321292095041,"leaf_weight":1617.5873215720057,"leaf_count":10985}},"right_child":{"split_index":12,"split_feature":0,"split_gain":21.087400436401367,"threshold":0.41954219571275886,"decision_type":"<=","default_left":true,"missing_type":"None","internal_value":0.00472882,"internal_weight":5962.95,"internal_count":41268,"left_child":{"leaf_index":7,"leaf_value":0.002403786666464919,"leaf_weight":2264.5554924309254,"leaf_count":15678},"right_child":{"leaf_index":13,"leaf_value":0.006132062173865268,"leaf_weight":3698.3904961794615,"leaf_count":25590}}},"right_child":{"split_index":3,"split_feature":0,"split_gain":330.8710021972656,"threshold":0.639232884340024,"decision_type":"<=","default_left":true,"missing_type":"None","internal_value":0.0244405,"internal_weight":7625.88,"internal_count":51273,"left_child":{"split_index":8,"split_feature":5,"split_gain":35.61539840698242,"threshold":1.635,"decision_type":"<=","default_left":true,"missing_type":"None","internal_value":0.0205365,"internal_weight":5545.48,"internal_count":37422,"left_child":{"leaf_index":2,"leaf_value":0.02325339041395031,"leaf_weight":2600.238886721432,"leaf_count":17425},"right_child":{"leaf_index":9,"leaf_value":0.018066092394681432,"leaf_weight":2945.245151720941,"leaf_count":19997}},"right_child":{"split_index":7,"split_feature":5,"split_gain":46.94900131225586,"threshold":1.3450000000000004,"decision_type":"<=","default_left":true,"missing_type":"None","internal_value":0.034707,"internal_weight":2080.39,"internal_count":13851,"left_child":{"leaf_index":4,"leaf_value":0.04055943443855248,"leaf_weight":874.3332848250866,"leaf_count":5731},"right_child":{"leaf_index":8,"leaf_value":0.03018793177782061,"leaf_weight":1206.0609483271837,"leaf_count":8120}}}}}},{"tree_index":8,"num_leaves":18,"num_cat":2,"shrinkage":0.03,"tree_structure":{"split_index":0,"split_feature":6,"split_gain":7820.02001953125,"threshold":-0.45676551044031866,"decision_type":"<=","default_left":true,"missing_type":"None","internal_value":-6.07787e-06,"internal_weight":38158.7,"internal_count":265592,"left_child":{"split_index":2,"split_feature":6,"split_gain":998.1820068359375,"threshold":-1.1554728848584894,"decision_type":"<=","default_left":true,"missing_type":"None","internal_value":-0.012838,"internal_weight":20158.7,"internal_count":143878,"left_child":{"split_index":6,"split_feature":5,"split_gain":141.9720001220703,"threshold":6.045000000000001,"decision_type":"<=","default_left":true,"missing_type":"None","internal_value":-0.0230435,"internal_weight":6039.77,"internal_count":44110,"left_child":{"split_index":9,"split_feature":0,"split_gain":21.818300247192383,"threshold":0.20181414629137537,"decision_type":"<=","default_left":true,"missing_type":"None","internal_value":-0.0201357,"internal_weight":4405.91,"internal_count":31697,"left_child":{"leaf_index":0,"leaf_value":-0.02281886140205806,"leaf_weight":1885.7967455908656,"leaf_count":13728},"right_child":{"leaf_index":10,"leaf_value":-0.018044275297193723,"leaf_weight":2520.1106656715274,"leaf_count":17969}},"right_child":{"split_index":14,"split_feature":0,"split_gain":9.839810371398926,"threshold":0.12251994847756227,"decision_type":"<=","default_left":true,"missing_type":"None","internal_value":-0.0307209,"internal_weight":1633.86,"internal_count":12413,"left_child":{"leaf_index":7,"leaf_value":-0.03395813484089802,"leaf_weight":814.6996892690659,"leaf_count":6264},"right_child":{"leaf_index":15,"leaf_value":-0.027149692651652187,"leaf_weight":819.1644972488284,"leaf_count":6149}}},"right_child":{"split_index":4,"split_feature":5,"split_gain":183.2729949951172,"threshold":3.055,"decision_type":"<=","default_left":true,"missing_type":"None","internal_value":-0.00845855,"internal_weight":14119,"internal_count":99768,"left_child":{"split_index":12,"split_feature":6,"split_gain":16.018699645996094,"threshold":-0.5744950538413363,"decision_type":"<=","default_left":true,"missing_type":"None","internal_value":-0.00410998,"internal_weight":5425.16,"internal_count":37940,"left_child":{"split_index":16,"split_feature":9,"split_gain":8.935970306396484,"threshold":"0||2||7||11||12||13||14||15||16||17||21||23","decision_type":"==","default_left":false,"missing_type":"None","internal_value":-0.00520118,"internal_weight":3755.73,"internal_count":26259,"left_child":{"leaf_index":3,"leaf_value":-0.003662098081070078,"leaf_weight":1969.5146407783031,"leaf_count":13421},"right_child":{"leaf_index":17,"leaf_value":-0.00679095826934169,"leaf_weight":1786.217124685645,"leaf_count":12838}},"right_child":{"split_index":15,"split_feature":9,"split_gain":9.33191967010498,"threshold":"0||1||3||10||12||14||17||18||19","decision_type":"==","default_left":false,"missing_type":"None","internal_value":-0.00161518,"internal_weight":1669.43,"internal_count":11681,"left_child":{"leaf_index":13,"leaf_value":-0.004505818464698997,"leaf_weight":610.9377716630697,"leaf_count":4197},"right_child":{"leaf_index":16,"leaf_value":7.387878089400824e-05,"leaf_weight":1058.4887270182371,"leaf_count":7484}}},"right_child":{"split_index":8,"split_feature":6,"split_gain":36.61140060424805,"threshold":-0.9887362679077486,"decision_type":"<=","default_left":true,"missing_type":"None","internal_value":-0.0111607,"internal_weight":8693.81,"internal_count":61828,"left_child":{"leaf_index":5,"leaf_value":-0.013456680204230732,"leaf_weight":3727.8493574783206,"leaf_count":26209},"right_child":{"leaf_index":9,"leaf_value":-0.009409276419528722,"leaf_weight":4965.962149277329,"leaf_count":35619}}}},"right_child":{"split_index":1,"split_feature":0,"split_gain":1272.6600341796875,"threshold":0.5408996943917532,"decision_type":"<=","default_left":true,"missing_type":"None","internal_value":0.0143616,"internal_weight":18000,"internal_count":121714,"left_child":{"split_index":5,"split_feature":5,"split_gain":167.55999755859375,"threshold":2.015,"decision_type":"<=","default_left":true,"missing_type":"None","internal_value":0.00801072,"internal_weight":11037.8,"internal_count":75099,"left_child":{"split_index":11,"split_feature":6,"split_gain":19.4822998046875,"threshold":0.01053727031165595,"decision_type":"<=","default_left":true,"missing_type":"None","internal_value":0.0120249,"internal_weight":5068.82,"internal_count":33831,"left_child":{"leaf_index":1,"leaf_value":0.010008605904359487,"leaf_weight":2512.884604036808,"leaf_count":16701},"right_child":{"leaf_index":12,"leaf_value":0.013952285704568215,"leaf_weight":2555.9339804947376,"leaf_count":17130}},"right_child":{"split_index":10,"split_feature":0,"split_gain":19.77280044555664,"threshold":0.41954219571275886,"decision_type":"<=","default_left":true,"missing_type":"None","internal_value":0.00458283,"internal_weight":5968.97,"internal_count":41268,"left_child":{"leaf_index":6,"leaf_value":0.002330648983934558,"leaf_weight":2265.782515361905,"leaf_count":15678},"right_child":{"leaf_index":11,"leaf_value":0.005940692621155863,"leaf_weight":3703.1853805705905,"leaf_count":25590}}},"right_child":{"split_index":3,"split_feature":0,"split_gain":275.3580017089844,"threshold":0.6708470270708767,"decision_type":"<=","default_left":true,"missing_type":"None","internal_value":0.0244031,"internal_weight":6962.16,"internal_count":46615,"left_child":{"split_index":7,"split_feature":0,"split_gain":50.85749816894531,"threshold":0.5984508024360851,"decision_type":"<=","default_left":true,"missing_type":"None","internal_value":0.0214053,"internal_weight":5617.14,"internal_count":37742,"left_child":{"leaf_index":2,"leaf_value":0.01890834868444233,"leaf_weight":3379.307487219572,"leaf_count":22667},"right_child":{"leaf_index":8,"leaf_value":0.025075043573603906,"leaf_weight":2237.8282783553004,"leaf_count":15075}},"right_child":{"split_index":13,"split_feature":0,"split_gain":15.642200469970703,"threshold":0.7477084316378789,"decision_type":"<=","default_left":true,"missing_type":"None","internal_value":0.036689,"internal_weight":1345.03,"internal_count":8873,"left_child":{"leaf_index":4,"leaf_value":0.03320942241389431,"leaf_weight":895.6032702997327,"leaf_count":5888},"right_child":{"leaf_index":14,"leaf_value":0.04282251699990176,"leaf_weight":449.42505571991205,"leaf_count":2985}}}}}},{"tree_index":9,"num_leaves":18,"num_cat":1,"shrinkage":0.03,"tree_structure":{"split_index":0,"split_feature":6,"split_gain":7367.169921875,"threshold":-0.45676551044031866,"decision_type":"<=","default_left":true,"missing_type":"None","internal_value":-6.734809999999999e-06,"internal_weight":38114,"internal_count":265592,"left_child":{"split_index":2,"split_feature":6,"split_gain":954.7169799804688,"threshold":-1.1554728848584894,"decision_type":"<=","default_left":true,"missing_type":"None","internal_value":-0.0125059,"internal_weight":20078.7,"internal_count":143878,"left_child":{"split_index":5,"split_feature":5,"split_gain":137.94200134277344,"threshold":6.045000000000001,"decision_type":"<=","default_left":true,"missing_type":"None","internal_value":-0.0225336,"internal_weight":5993.11,"internal_count":44110,"left_child":{"split_index":11,"split_feature":5,"split_gain":21.098600387573242,"threshold":4.595000000000001,"decision_type":"<=","default_left":true,"missing_type":"None","internal_value":-0.0196634,"internal_weight":4377.35,"internal_count":31697,"left_child":{"leaf_index":0,"leaf_value":-0.017433791399556007,"leaf_weight":2330.7022643983364,"leaf_count":16647},"right_child":{"leaf_index":12,"leaf_value":-0.02210269982460001,"leaf_weight":2046.6505273133516,"leaf_count":15050}},"right_child":{"split_index":14,"split_feature":6,"split_gain":9.659210205078125,"threshold":-1.9676965516067502,"decision_type":"<=","default_left":true,"missing_type":"None","internal_value":-0.0301466,"internal_weight":1615.76,"internal_count":12413,"left_child":{"leaf_index":6,"leaf_value":-0.03335646016494358,"leaf_weight":806.2963952198625,"leaf_count":6279},"right_child":{"leaf_index":15,"leaf_value":-0.02659916631179711,"leaf_weight":809.4612107649446,"leaf_count":6134}}},"right_child":{"split_index":4,"split_feature":5,"split_gain":173.60800170898438,"threshold":3.055,"decision_type":"<=","default_left":true,"missing_type":"None","internal_value":-0.00822582,"internal_weight":14085.6,"internal_count":99768,"left_child":{"split_index":12,"split_feature":6,"split_gain":15.115300178527832,"threshold":-0.5744950538413363,"decision_type":"<=","default_left":true,"missing_type":"None","internal_value":-0.00399266,"internal_weight":5419.49,"internal_count":37940,"left_child":{"leaf_index":3,"leaf_value":-0.0050538544103043165,"leaf_weight":3750.7111187577248,"leaf_count":26259},"right_child":{"leaf_index":13,"leaf_value":-0.0015679836262580261,"leaf_weight":1668.77666156739,"leaf_count":11681}},"right_child":{"split_index":8,"split_feature":6,"split_gain":34.81330108642578,"threshold":-0.9887362679077486,"decision_type":"<=","default_left":true,"missing_type":"None","internal_value":-0.0108618,"internal_weight":8666.14,"internal_count":61828,"left_child":{"leaf_index":5,"leaf_value":-0.013106210994926343,"leaf_weight":3713.1481550857425,"leaf_count":26209},"right_child":{"leaf_index":9,"leaf_value":-0.009151676142759147,"leaf_weight":4952.996008373797,"leaf_count":35619}}}},"right_child":{"split_index":1,"split_feature":6,"split_gain":1193.739990234375,"threshold":0.12146330958399161,"decision_type":"<=","default_left":true,"missing_type":"None","internal_value":0.0139056,"internal_weight":18035.3,"internal_count":121714,"left_child":{"split_index":6,"split_feature":5,"split_gain":122.36599731445312,"threshold":2.0750000000000006,"decision_type":"<=","default_left":true,"missing_type":"None","internal_value":0.00725121,"internal_weight":10365.5,"internal_count":70441,"left_child":{"split_index":10,"split_feature":5,"split_gain":21.270599365234375,"threshold":1.925,"decision_type":"<=","default_left":true,"missing_type":"None","internal_value":0.0103795,"internal_weight":5400.62,"internal_count":36113,"left_child":{"leaf_index":1,"leaf_value":0.012274032118856465,"leaf_weight":2767.073147326708,"leaf_count":18188},"right_child":{"leaf_index":11,"leaf_value":0.008340790066420538,"leaf_weight":2633.5438203960657,"leaf_count":17925}},"right_child":{"split_index":13,"split_feature":4,"split_gain":12.376099586486816,"threshold":0.9700736977517729,"decision_type":"<=","default_left":true,"missing_type":"None","internal_value":0.00382808,"internal_weight":4964.9,"internal_count":34328,"left_child":{"leaf_index":7,"leaf_value":0.005359386086109643,"leaf_weight":2449.255640350282,"leaf_count":16945},"right_child":{"split_index":15,"split_feature":5,"split_gain":9.430999755859375,"threshold":2.2550000000000003,"decision_type":"<=","default_left":true,"missing_type":"None","internal_value":0.00230709,"internal_weight":2515.64,"internal_count":17383,"left_child":{"leaf_index":14,"leaf_value":0.003931075669461093,"leaf_weight":1407.8956663012505,"leaf_count":9602},"right_child":{"split_index":16,"split_feature":9,"split_gain":9.026320457458496,"threshold":"2||15||16||17||22","decision_type":"==","default_left":false,"missing_type":"None","internal_value":0.000189347,"internal_weight":1107.75,"internal_count":7781,"left_child":{"leaf_index":16,"leaf_value":-0.005987713339005794,"leaf_weight":159.48286756128073,"leaf_count":1127},"right_child":{"leaf_index":17,"leaf_value":0.0013650314736293485,"leaf_weight":948.2628846690059,"leaf_count":6654}}}}},"right_child":{"split_index":3,"split_feature":6,"split_gain":293.8290100097656,"threshold":0.5720361981875742,"decision_type":"<=","default_left":true,"missing_type":"None","internal_value":0.022876,"internal_weight":7669.74,"internal_count":51273,"left_child":{"split_index":9,"split_feature":5,"split_gain":31.346900939941406,"threshold":1.6250000000000002,"decision_type":"<=","default_left":true,"missing_type":"None","internal_value":0.019208,"internal_weight":5578.14,"internal_count":37422,"left_child":{"leaf_index":2,"leaf_value":0.021952813924306893,"leaf_weight":2408.512170366943,"leaf_count":16047},"right_child":{"leaf_index":10,"leaf_value":0.01705815138065834,"leaf_weight":3169.626175224781,"leaf_count":21375}},"right_child":{"split_index":7,"split_feature":5,"split_gain":41.83449935913086,"threshold":1.3150000000000002,"decision_type":"<=","default_left":true,"missing_type":"None","internal_value":0.0325264,"internal_weight":2091.6,"internal_count":13851,"left_child":{"leaf_index":4,"leaf_value":0.03921816460018428,"leaf_weight":692.0972310751677,"leaf_count":4535},"right_child":{"leaf_index":8,"leaf_value":0.028981011912310135,"leaf_weight":1399.502345174551,"leaf_count":9316}}}}}},{"tree_index":10,"num_leaves":18,"num_cat":1,"shrinkage":0.03,"tree_structure":{"split_index":0,"split_feature":6,"split_gain":6941.080078125,"threshold":-0.45676551044031866,"decision_type":"<=","default_left":true,"missing_type":"None","internal_value":-7.29335e-06,"internal_weight":38066.1,"internal_count":265592,"left_child":{"split_index":2,"split_feature":0,"split_gain":914.760009765625,"threshold":0.23573925618183453,"decision_type":"<=","default_left":true,"missing_type":"None","internal_value":-0.0121821,"internal_weight":19999.2,"internal_count":143878,"left_child":{"split_index":5,"split_feature":5,"split_gain":122.75399780273438,"threshold":6.045000000000001,"decision_type":"<=","default_left":true,"missing_type":"None","internal_value":-0.02242,"internal_weight":5638.58,"internal_count":41903,"left_child":{"split_index":12,"split_feature":0,"split_gain":16.067800521850586,"threshold":0.19898026744158812,"decision_type":"<=","default_left":true,"missing_type":"None","internal_value":-0.0195219,"internal_weight":4041.03,"internal_count":29490,"left_child":{"leaf_index":0,"leaf_value":-0.022006122997475782,"leaf_weight":1716.4989469498396,"leaf_count":12683},"right_child":{"leaf_index":13,"leaf_value":-0.017599037964946943,"leaf_weight":2324.529413625598,"leaf_count":16807}},"right_child":{"split_index":15,"split_feature":0,"split_gain":9.76710033416748,"threshold":0.12251994847756227,"decision_type":"<=","default_left":true,"missing_type":"None","internal_value":-0.0295887,"internal_weight":1597.56,"internal_count":12413,"left_child":{"leaf_index":6,"leaf_value":-0.0328121474102394,"leaf_weight":793.9260575920343,"leaf_count":6264},"right_child":{"leaf_index":16,"leaf_value":-0.02605675166531439,"leaf_weight":803.6291691735387,"leaf_count":6149}}},"right_child":{"split_index":4,"split_feature":0,"split_gain":177.44200134277344,"threshold":0.2935410018975942,"decision_type":"<=","default_left":true,"missing_type":"None","internal_value":-0.0081489,"internal_weight":14360.6,"internal_count":101975,"left_child":{"split_index":10,"split_feature":0,"split_gain":23.113800048828125,"threshold":0.26133923230805184,"decision_type":"<=","default_left":true,"missing_type":"None","internal_value":-0.0114808,"internal_weight":7194.36,"internal_count":51357,"left_child":{"leaf_index":3,"leaf_value":-0.013784494642121807,"leaf_weight":2662.87822060287,"leaf_count":18878},"right_child":{"split_index":14,"split_feature":11,"split_gain":10.47070026397705,"threshold":"1","decision_type":"==","default_left":false,"missing_type":"None","internal_value":-0.0100952,"internal_weight":4531.49,"internal_count":32479,"left_child":{"leaf_index":11,"leaf_value":-0.008849529478015419,"leaf_weight":3071.9058635756373,"leaf_count":22077},"right_child":{"leaf_index":15,"leaf_value":-0.012478268289986992,"leaf_weight":1459.580631352961,"leaf_count":10402}}},"right_child":{"split_index":9,"split_feature":0,"split_gain":28.65399932861328,"threshold":0.3254325146277408,"decision_type":"<=","default_left":true,"missing_type":"None","internal_value":-0.00478862,"internal_weight":7166.21,"internal_count":50618,"left_child":{"leaf_index":5,"leaf_value":-0.006805921315896689,"leaf_weight":3380.146965973079,"leaf_count":24073},"right_child":{"leaf_index":10,"leaf_value":-0.002965184529470546,"leaf_weight":3786.0599359720945,"leaf_count":26545}}}},"right_child":{"split_index":1,"split_feature":0,"split_gain":1120.5899658203125,"threshold":0.526319900927664,"decision_type":"<=","default_left":true,"missing_type":"None","internal_value":0.0134665,"internal_weight":18067,"internal_count":121714,"left_child":{"split_index":6,"split_feature":5,"split_gain":104.50399780273438,"threshold":2.0750000000000006,"decision_type":"<=","default_left":true,"missing_type":"None","internal_value":0.00683968,"internal_weight":10132.1,"internal_count":68756,"left_child":{"split_index":11,"split_feature":5,"split_gain":16.148500442504883,"threshold":1.925,"decision_type":"<=","default_left":true,"missing_type":"None","internal_value":0.00983215,"internal_weight":5163.15,"internal_count":34428,"left_child":{"leaf_index":1,"leaf_value":0.011615046585305959,"leaf_weight":2525.394076950848,"leaf_count":16503},"right_child":{"leaf_index":12,"leaf_value":0.00807823181121274,"leaf_weight":2637.759388707578,"leaf_count":17925}},"right_child":{"split_index":13,"split_feature":4,"split_gain":11.613699913024902,"threshold":0.9700736977517729,"decision_type":"<=","default_left":true,"missing_type":"None","internal_value":0.00371039,"internal_weight":4968.91,"internal_count":34328,"left_child":{"leaf_index":7,"leaf_value":0.005193166541596558,"leaf_weight":2452.033260986209,"leaf_count":16945},"right_child":{"split_index":16,"split_feature":5,"split_gain":8.87576961517334,"threshold":2.2550000000000003,"decision_type":"<=","default_left":true,"missing_type":"None","internal_value":0.00223612,"internal_weight":2516.88,"internal_count":17383,"left_child":{"leaf_index":14,"leaf_value":0.003810630281077564,"leaf_weight":1409.0590721592307,"leaf_count":9602},"right_child":{"leaf_index":17,"leaf_value":0.00018018357662099403,"leaf_weight":1107.8215117678046,"leaf_count":7781}}}},"right_child":{"split_index":3,"split_feature":0,"split_gain":287.7799987792969,"threshold":0.639232884340024,"decision_type":"<=","default_left":true,"missing_type":"None","internal_value":0.0219072,"internal_weight":7934.9,"internal_count":52958,"left_child":{"split_index":8,"split_feature":5,"split_gain":32.80820083618164,"threshold":1.635,"decision_type":"<=","default_left":true,"missing_type":"None","internal_value":0.0184183,"internal_weight":5839.56,"internal_count":39107,"left_child":{"leaf_index":2,"leaf_value":0.0210489160938754,"leaf_weight":2622.9935983866453,"leaf_count":17425},"right_child":{"leaf_index":9,"leaf_value":0.016212304110862302,"leaf_weight":3216.5671889185905,"leaf_count":21682}},"right_child":{"split_index":7,"split_feature":0,"split_gain":40.23540115356445,"threshold":0.7477084316378789,"decision_type":"<=","default_left":true,"missing_type":"None","internal_value":0.031502,"internal_weight":2095.34,"internal_count":13851,"left_child":{"leaf_index":4,"leaf_value":0.028878179463143326,"leaf_weight":1644.9450288712978,"leaf_count":10866},"right_child":{"leaf_index":8,"leaf_value":0.040315403629374816,"leaf_weight":450.39680498838425,"leaf_count":2985}}}}}},{"tree_index":11,"num_leaves":18,"num_cat":2,"shrinkage":0.03,"tree_structure":{"split_index":0,"split_feature":6,"split_gain":6540.75,"threshold":-0.45676551044031866,"decision_type":"<=","default_left":true,"missing_type":"None","internal_value":-7.996769999999999e-06,"internal_weight":38015.7,"internal_count":265592,"left_child":{"split_index":2,"split_feature":0,"split_gain":875.3469848632812,"threshold":0.23573925618183453,"decision_type":"<=","default_left":true,"missing_type":"None","internal_value":-0.011867,"internal_weight":19920.3,"internal_count":143878,"left_child":{"split_index":6,"split_feature":6,"split_gain":118.26200103759766,"threshold":-1.6806418193356074,"decision_type":"<=","default_left":true,"missing_type":"None","internal_value":-0.0219302,"internal_weight":5593.5,"internal_count":41903,"left_child":{"split_index":14,"split_feature":0,"split_gain":10.860199928283691,"threshold":0.12251994847756227,"decision_type":"<=","default_left":true,"missing_type":"None","internal_value":-0.0289268,"internal_weight":1606.76,"internal_count":12605,"left_child":{"leaf_index":0,"leaf_value":-0.03226556717673045,"leaf_weight":783.4487439543009,"leaf_count":6264},"right_child":{"leaf_index":15,"leaf_value":-0.02541556042692762,"leaf_weight":823.3121620640159,"leaf_count":6341}},"right_child":{"split_index":11,"split_feature":0,"split_gain":15.252300262451172,"threshold":0.19898026744158812,"decision_type":"<=","default_left":true,"missing_type":"None","internal_value":-0.0190468,"internal_weight":3986.74,"internal_count":29298,"left_child":{"leaf_index":7,"leaf_value":-0.021509205946856187,"leaf_weight":1675.73002692312,"leaf_count":12491},"right_child":{"leaf_index":12,"leaf_value":-0.01717392180125717,"leaf_weight":2311.0130086764693,"leaf_count":16807}}},"right_child":{"split_index":4,"split_feature":0,"split_gain":168.3300018310547,"threshold":0.2935410018975942,"decision_type":"<=","default_left":true,"missing_type":"None","internal_value":-0.00792499,"internal_weight":14326.8,"internal_count":101975,"left_child":{"split_index":9,"split_feature":0,"split_gain":21.974199295043945,"threshold":0.26133923230805184,"decision_type":"<=","default_left":true,"missing_type":"None","internal_value":-0.0111776,"internal_weight":7169.76,"internal_count":51357,"left_child":{"leaf_index":3,"leaf_value":-0.013430047495802509,"leaf_weight":2651.5474214702845,"leaf_count":18878},"right_child":{"split_index":15,"split_feature":11,"split_gain":9.953280448913574,"threshold":"1","decision_type":"==","default_left":false,"missing_type":"None","internal_value":-0.00982433,"internal_weight":4518.21,"internal_count":32479,"left_child":{"leaf_index":10,"leaf_value":-0.008607994127707198,"leaf_weight":3063.985629968345,"leaf_count":22077},"right_child":{"split_index":16,"split_feature":9,"split_gain":8.338959693908691,"threshold":"0||1||6||7||8||10||13||14||21||23","decision_type":"==","default_left":false,"missing_type":"None","internal_value":-0.0121532,"internal_weight":1454.22,"internal_count":10402,"left_child":{"leaf_index":16,"leaf_value":-0.008620399985362003,"leaf_weight":623.8798548653722,"leaf_count":4409},"right_child":{"leaf_index":17,"leaf_value":-0.014515328933914572,"leaf_weight":830.3442274406552,"leaf_count":5993}}}},"right_child":{"split_index":8,"split_feature":0,"split_gain":27.06529998779297,"threshold":0.3254325146277408,"decision_type":"<=","default_left":true,"missing_type":"None","internal_value":-0.00465152,"internal_weight":7157.05,"internal_count":50618,"left_child":{"leaf_index":5,"leaf_value":-0.0066147138696822485,"leaf_weight":3373.8476972207427,"leaf_count":24073},"right_child":{"leaf_index":9,"leaf_value":-0.002878617632428197,"leaf_weight":3783.2031054645777,"leaf_count":26545}}}},"right_child":{"split_index":1,"split_feature":0,"split_gain":1052.68994140625,"threshold":0.5433090046731591,"decision_type":"<=","default_left":true,"missing_type":"None","internal_value":0.013044,"internal_weight":18095.4,"internal_count":121714,"left_child":{"split_index":5,"split_feature":6,"split_gain":146.4709930419922,"threshold":-0.10955368574692574,"decision_type":"<=","default_left":true,"missing_type":"None","internal_value":0.00738835,"internal_weight":11254.8,"internal_count":76217,"left_child":{"split_index":10,"split_feature":0,"split_gain":19.08060073852539,"threshold":0.41954219571275886,"decision_type":"<=","default_left":true,"missing_type":"None","internal_value":0.00432952,"internal_weight":6293.6,"internal_count":43198,"left_child":{"leaf_index":1,"leaf_value":0.0020878460853542484,"leaf_weight":2269.760735794902,"leaf_count":15678},"right_child":{"leaf_index":11,"leaf_value":0.005576182013095458,"leaf_weight":4023.84116576612,"leaf_count":27520}},"right_child":{"split_index":12,"split_feature":6,"split_gain":14.240699768066406,"threshold":0.01053727031165595,"decision_type":"<=","default_left":true,"missing_type":"None","internal_value":0.0112464,"internal_weight":4961.19,"internal_count":33019,"left_child":{"leaf_index":6,"leaf_value":0.009300291313243348,"leaf_weight":2218.5837022289634,"leaf_count":14770},"right_child":{"leaf_index":13,"leaf_value":0.01277270227345349,"leaf_weight":2742.609697572887,"leaf_count":18249}}},"right_child":{"split_index":3,"split_feature":0,"split_gain":227.67599487304688,"threshold":0.6708470270708767,"decision_type":"<=","default_left":true,"missing_type":"None","internal_value":0.0223233,"internal_weight":6840.58,"internal_count":45497,"left_child":{"split_index":7,"split_feature":0,"split_gain":38.92890167236328,"threshold":0.5984508024360851,"decision_type":"<=","default_left":true,"missing_type":"None","internal_value":0.0195329,"internal_weight":5489.3,"internal_count":36624,"left_child":{"leaf_index":2,"leaf_value":0.017249472943124924,"leaf_weight":3234.9366190955043,"leaf_count":21549},"right_child":{"leaf_index":8,"leaf_value":0.02271703369298866,"leaf_weight":2254.364154174924,"leaf_count":15075}},"right_child":{"split_index":13,"split_feature":0,"split_gain":13.623600006103516,"threshold":0.7477084316378789,"decision_type":"<=","default_left":true,"missing_type":"None","internal_value":0.033444,"internal_weight":1351.28,"internal_count":8873,"left_child":{"leaf_index":4,"leaf_value":0.03023118971654384,"leaf_weight":900.9559004381299,"leaf_count":5888},"right_child":{"leaf_index":14,"leaf_value":0.0391336607708644,"leaf_weight":450.3196122571826,"leaf_count":2985}}}}}},{"tree_index":12,"num_leaves":18,"num_cat":3,"shrinkage":0.03,"tree_structure":{"split_index":0,"split_feature":5,"split_gain":6164.93994140625,"threshold":2.3950000000000005,"decision_type":"<=","default_left":true,"missing_type":"None","internal_value":-8.81405e-06,"internal_weight":37962.9,"internal_count":265592,"left_child":{"split_index":1,"split_feature":0,"split_gain":946.3469848632812,"threshold":0.5433090046731591,"decision_type":"<=","default_left":true,"missing_type":"None","internal_value":0.0128876,"internal_weight":17750.4,"internal_count":118984,"left_child":{"split_index":5,"split_feature":0,"split_gain":124.16799926757812,"threshold":0.47506751455350826,"decision_type":"<=","default_left":true,"missing_type":"None","internal_value":0.00738026,"internal_weight":10898.8,"internal_count":73487,"left_child":{"split_index":10,"split_feature":5,"split_gain":18.365699768066406,"threshold":2.1250000000000004,"decision_type":"<=","default_left":true,"missing_type":"None","internal_value":0.00452268,"internal_weight":6108.34,"internal_count":41660,"left_child":{"leaf_index":0,"leaf_value":0.006648973328182969,"leaf_weight":2312.1650838702917,"leaf_count":15595},"right_child":{"leaf_index":11,"leaf_value":0.0032045109809803562,"leaf_weight":3796.173421435058,"leaf_count":26065}},"right_child":{"split_index":13,"split_feature":0,"split_gain":11.058799743652344,"threshold":0.5236944473669994,"decision_type":"<=","default_left":true,"missing_type":"None","internal_value":0.011001,"internal_weight":4790.44,"internal_count":31827,"left_child":{"leaf_index":6,"leaf_value":0.010019212247527722,"leaf_weight":3506.8812783584,"leaf_count":23227},"right_child":{"leaf_index":14,"leaf_value":0.013569881504232363,"leaf_weight":1283.5551026389003,"leaf_count":8600}}},"right_child":{"split_index":3,"split_feature":0,"split_gain":215.51400756835938,"threshold":0.6708470270708767,"decision_type":"<=","default_left":true,"missing_type":"None","internal_value":0.0216226,"internal_weight":6851.64,"internal_count":45497,"left_child":{"split_index":7,"split_feature":0,"split_gain":36.59469985961914,"threshold":0.5984508024360851,"decision_type":"<=","default_left":true,"missing_type":"None","internal_value":0.0189119,"internal_weight":5499.89,"internal_count":36624,"left_child":{"leaf_index":2,"leaf_value":0.016699012466463423,"leaf_weight":3241.4857394620776,"leaf_count":21549},"right_child":{"leaf_index":8,"leaf_value":0.021998071688791622,"leaf_weight":2258.3996288627386,"leaf_count":15075}},"right_child":{"split_index":12,"split_feature":0,"split_gain":13.171199798583984,"threshold":0.7477084316378789,"decision_type":"<=","default_left":true,"missing_type":"None","internal_value":0.0324422,"internal_weight":1351.76,"internal_count":8873,"left_child":{"leaf_index":4,"leaf_value":0.029302509436927863,"leaf_weight":901.8629440367222,"leaf_count":5888},"right_child":{"leaf_index":13,"leaf_value":0.03801583949712578,"leaf_weight":449.894940122962,"leaf_count":2985}}}},"right_child":{"split_index":2,"split_feature":0,"split_gain":869.7769775390625,"threshold":0.23573925618183453,"decision_type":"<=","default_left":true,"missing_type":"None","internal_value":-0.0113371,"internal_weight":20212.5,"internal_count":146608,"left_child":{"split_index":6,"split_feature":5,"split_gain":116.38600158691406,"threshold":6.045000000000001,"decision_type":"<=","default_left":true,"missing_type":"None","internal_value":-0.0214521,"internal_weight":5548.55,"internal_count":41903,"left_child":{"split_index":11,"split_feature":0,"split_gain":14.966099739074707,"threshold":0.19898026744158812,"decision_type":"<=","default_left":true,"missing_type":"None","internal_value":-0.0186225,"internal_weight":3987.49,"internal_count":29490,"left_child":{"leaf_index":1,"leaf_value":-0.021038767463054112,"leaf_weight":1689.89209099859,"leaf_count":12683},"right_child":{"leaf_index":12,"leaf_value":-0.016758940646847218,"leaf_weight":2297.594358600676,"leaf_count":16807}},"right_child":{"leaf_index":7,"leaf_value":-0.028519371950250748,"leaf_weight":1561.0680376067758,"leaf_count":12413}},"right_child":{"split_index":4,"split_feature":5,"split_gain":178.83599853515625,"threshold":3.055,"decision_type":"<=","default_left":true,"missing_type":"None","internal_value":-0.00749716,"internal_weight":14664,"internal_count":104705,"left_child":{"split_index":9,"split_feature":0,"split_gain":19.48189926147461,"threshold":0.3650085949881687,"decision_type":"<=","default_left":true,"missing_type":"None","internal_value":-0.00336722,"internal_weight":5772.58,"internal_count":40669,"left_child":{"leaf_index":3,"leaf_value":-0.004523328135344494,"leaf_weight":4009.290111631155,"leaf_count":28172},"right_child":{"split_index":16,"split_feature":9,"split_gain":10.311800003051758,"threshold":"2||4||6||7||8||9||11||13||15||16||19","decision_type":"==","default_left":false,"missing_type":"None","internal_value":-0.000704555,"internal_weight":1763.29,"internal_count":12497,"left_child":{"leaf_index":10,"leaf_value":0.0016348384422188243,"leaf_weight":847.2004425302148,"leaf_count":6053},"right_child":{"leaf_index":17,"leaf_value":-0.002898477646550855,"leaf_weight":916.0880331769586,"leaf_count":6444}}},"right_child":{"split_index":8,"split_feature":0,"split_gain":35.2156982421875,"threshold":0.2668544644598551,"decision_type":"<=","default_left":true,"missing_type":"None","internal_value":-0.010168,"internal_weight":8891.37,"internal_count":64036,"left_child":{"leaf_index":5,"leaf_value":-0.012634903315642682,"leaf_weight":3365.9611969813704,"leaf_count":24074},"right_child":{"split_index":14,"split_feature":11,"split_gain":10.768699645996094,"threshold":"1||3","decision_type":"==","default_left":false,"missing_type":"None","internal_value":-0.00864092,"internal_weight":5525.41,"internal_count":39962,"left_child":{"split_index":15,"split_feature":9,"split_gain":17.907899856567383,"threshold":"3||4||10||11||12||18||19||22","decision_type":"==","default_left":false,"missing_type":"None","internal_value":-0.00748767,"internal_weight":3597.97,"internal_count":26146,"left_child":{"leaf_index":9,"leaf_value":-0.004159537095371905,"leaf_weight":1143.6032275930047,"leaf_count":8298},"right_child":{"leaf_index":16,"leaf_value":-0.008978626146759818,"leaf_weight":2454.363047428429,"leaf_count":17848}},"right_child":{"leaf_index":15,"leaf_value":-0.010636959595455993,"leaf_weight":1927.4451251626015,"leaf_count":13816}}}}}}},{"tree_index":13,"num_leaves":18,"num_cat":1,"shrinkage":0.03,"tree_structure":{"split_index":0,"split_feature":6,"split_gain":5810.2900390625,"threshold":-0.45676551044031866,"decision_type":"<=","default_left":true,"missing_type":"None","internal_value":-9.17202e-06,"internal_weight":37907.9,"internal_count":265592,"left_child":{"split_index":2,"split_feature":0,"split_gain":801.406005859375,"threshold":0.23573925618183453,"decision_type":"<=","default_left":true,"missing_type":"None","internal_value":-0.0112612,"internal_weight":19764.7,"internal_count":143878,"left_child":{"split_index":6,"split_feature":5,"split_gain":113.24600219726562,"threshold":6.045000000000001,"decision_type":"<=","default_left":true,"missing_type":"None","internal_value":-0.0209837,"internal_weight":5503.78,"internal_count":41903,"left_child":{"split_index":11,"split_feature":0,"split_gain":14.45580005645752,"threshold":0.19898026744158812,"decision_type":"<=","default_left":true,"missing_type":"None","internal_value":-0.0181889,"internal_weight":3961,"internal_count":29490,"left_child":{"leaf_index":0,"leaf_value":-0.020572776048462374,"leaf_weight":1676.7074232697487,"leaf_count":12683},"right_child":{"leaf_index":12,"leaf_value":-0.016353743823008686,"leaf_weight":2284.2885146811604,"leaf_count":16807}},"right_child":{"split_index":14,"split_feature":0,"split_gain":10.419899940490723,"threshold":0.12251994847756227,"decision_type":"<=","default_left":true,"missing_type":"None","internal_value":-0.0279995,"internal_weight":1542.78,"internal_count":12413,"left_child":{"leaf_index":7,"leaf_value":-0.03127133100253535,"leaf_weight":763.5044414401054,"leaf_count":6264},"right_child":{"leaf_index":15,"leaf_value":-0.024451438742527747,"leaf_weight":779.2765656486154,"leaf_count":6149}}},"right_child":{"split_index":4,"split_feature":0,"split_gain":152.3800048828125,"threshold":0.2935410018975942,"decision_type":"<=","default_left":true,"missing_type":"None","internal_value":-0.00749607,"internal_weight":14260.9,"internal_count":101975,"left_child":{"split_index":9,"split_feature":0,"split_gain":19.88479995727539,"threshold":0.26133923230805184,"decision_type":"<=","default_left":true,"missing_type":"None","internal_value":-0.0106043,"internal_weight":7122.3,"internal_count":51357,"left_child":{"leaf_index":3,"leaf_value":-0.012758761503061794,"leaf_weight":2629.638479568064,"leaf_count":18878},"right_child":{"split_index":15,"split_feature":11,"split_gain":9.199870109558105,"threshold":"1","decision_type":"==","default_left":false,"missing_type":"None","internal_value":-0.00931279,"internal_weight":4492.66,"internal_count":32479,"left_child":{"leaf_index":10,"leaf_value":-0.008143660899990456,"leaf_weight":3048.4969149827957,"leaf_count":22077},"right_child":{"leaf_index":16,"leaf_value":-0.01155559354437131,"leaf_weight":1444.165767967701,"leaf_count":10402}}},"right_child":{"split_index":8,"split_feature":0,"split_gain":24.210800170898438,"threshold":0.3254325146277408,"decision_type":"<=","default_left":true,"missing_type":"None","internal_value":-0.00438027,"internal_weight":7138.6,"internal_count":50618,"left_child":{"leaf_index":5,"leaf_value":-0.006241881535731602,"leaf_weight":3361.338533952832,"leaf_count":24073},"right_child":{"leaf_index":9,"leaf_value":-0.0027020701986360156,"leaf_weight":3777.2642536088824,"leaf_count":26545}}}},"right_child":{"split_index":1,"split_feature":0,"split_gain":929.5280151367188,"threshold":0.5408996943917532,"decision_type":"<=","default_left":true,"missing_type":"None","internal_value":0.0122455,"internal_weight":18143.2,"internal_count":121714,"left_child":{"split_index":5,"split_feature":5,"split_gain":121.89199829101562,"threshold":2.015,"decision_type":"<=","default_left":true,"missing_type":"None","internal_value":0.00683026,"internal_weight":11112.5,"internal_count":75099,"left_child":{"split_index":12,"split_feature":6,"split_gain":14.098999977111816,"threshold":0.01053727031165595,"decision_type":"<=","default_left":true,"missing_type":"None","internal_value":0.010235,"internal_weight":5116.53,"internal_count":33831,"left_child":{"leaf_index":1,"leaf_value":0.008516952997523808,"leaf_weight":2534.3207968622446,"leaf_count":16701},"right_child":{"leaf_index":13,"leaf_value":0.011872350476825813,"leaf_weight":2582.2052387222648,"leaf_count":17130}},"right_child":{"split_index":10,"split_feature":5,"split_gain":15.03849983215332,"threshold":2.2550000000000003,"decision_type":"<=","default_left":true,"missing_type":"None","internal_value":0.0039076,"internal_weight":5995.95,"internal_count":41268,"left_child":{"leaf_index":6,"leaf_value":0.005039620706622403,"leaf_weight":3839.9126232266426,"leaf_count":26194},"right_child":{"split_index":16,"split_feature":4,"split_gain":8.97445011138916,"threshold":0.9933268572403687,"decision_type":"<=","default_left":true,"missing_type":"None","internal_value":0.0018595,"internal_weight":2156.04,"internal_count":15074,"left_child":{"leaf_index":11,"leaf_value":0.003695889794200503,"leaf_weight":1129.7918306589127,"leaf_count":7882},"right_child":{"leaf_index":17,"leaf_value":-0.0001316131669154193,"leaf_weight":1026.2459636479616,"leaf_count":7192}}}},"right_child":{"split_index":3,"split_feature":0,"split_gain":209.86300659179688,"threshold":0.6708470270708767,"decision_type":"<=","default_left":true,"missing_type":"None","internal_value":0.0207807,"internal_weight":7030.74,"internal_count":46615,"left_child":{"split_index":7,"split_feature":0,"split_gain":37.15909957885742,"threshold":0.5918594883111062,"decision_type":"<=","default_left":true,"missing_type":"None","internal_value":0.0181841,"internal_weight":5679.23,"internal_count":37742,"left_child":{"leaf_index":2,"leaf_value":0.015815531832542112,"leaf_weight":3115.5477486252785,"leaf_count":20650},"right_child":{"leaf_index":8,"leaf_value":0.020986847184529898,"leaf_weight":2563.685674518347,"leaf_count":17092}},"right_child":{"split_index":13,"split_feature":5,"split_gain":12.98900032043457,"threshold":1.2250000000000003,"decision_type":"<=","default_left":true,"missing_type":"None","internal_value":0.0314878,"internal_weight":1351.5,"internal_count":8873,"left_child":{"leaf_index":4,"leaf_value":0.03851577933762111,"leaf_weight":317.1478839069605,"leaf_count":2089},"right_child":{"leaf_index":14,"leaf_value":0.029010682747997802,"leaf_weight":1034.355779722333,"leaf_count":6784}}}}}},{"tree_index":14,"num_leaves":18,"num_cat":2,"shrinkage":0.03,"tree_structure":{"split_index":0,"split_feature":6,"split_gain":5476.6298828125,"threshold":-0.45676551044031866,"decision_type":"<=","default_left":true,"missing_type":"None","internal_value":-9.7125e-06,"internal_weight":37851.1,"internal_count":265592,"left_child":{"split_index":2,"split_feature":6,"split_gain":766.0850219726562,"threshold":-1.1554728848584894,"decision_type":"<=","default_left":true,"missing_type":"None","internal_value":-0.0109693,"internal_weight":19688,"internal_count":143878,"left_child":{"split_index":5,"split_feature":6,"split_gain":120.37300109863281,"threshold":-1.5846667917494788,"decision_type":"<=","default_left":true,"missing_type":"None","internal_value":-0.0201684,"internal_weight":5761.72,"internal_count":44110,"left_child":{"split_index":10,"split_feature":6,"split_gain":20.268299102783203,"threshold":-1.9676965516067502,"decision_type":"<=","default_left":true,"missing_type":"None","internal_value":-0.0262922,"internal_weight":1961.83,"internal_count":15773,"left_child":{"leaf_index":0,"leaf_value":-0.030748074760332728,"leaf_weight":754.8502423539758,"leaf_count":6279},"right_child":{"leaf_index":11,"leaf_value":-0.023284404743749345,"leaf_weight":1206.9800882041454,"leaf_count":9494}},"right_child":{"split_index":16,"split_feature":5,"split_gain":9.789859771728516,"threshold":4.595000000000001,"decision_type":"<=","default_left":true,"missing_type":"None","internal_value":-0.0169463,"internal_weight":3799.89,"internal_count":28337,"left_child":{"leaf_index":6,"leaf_value":-0.015401301881121203,"leaf_weight":2266.1170041933656,"leaf_count":16646},"right_child":{"leaf_index":17,"leaf_value":-0.019108072088270367,"leaf_weight":1533.7715924456716,"leaf_count":11691}}},"right_child":{"split_index":4,"split_feature":6,"split_gain":134.5050048828125,"threshold":-0.8510346092265441,"decision_type":"<=","default_left":true,"missing_type":"None","internal_value":-0.0071508,"internal_weight":13926.2,"internal_count":99768,"left_child":{"split_index":9,"split_feature":5,"split_gain":20.34000015258789,"threshold":3.5350000000000006,"decision_type":"<=","default_left":true,"missing_type":"None","internal_value":-0.00986513,"internal_weight":7545.55,"internal_count":54546,"left_child":{"split_index":13,"split_feature":11,"split_gain":11.045900344848633,"threshold":"1","decision_type":"==","default_left":false,"missing_type":"None","internal_value":-0.0085328,"internal_weight":4559,"internal_count":32850,"left_child":{"split_index":14,"split_feature":9,"split_gain":12.873000144958496,"threshold":"3||4||10||12||18||19||22","decision_type":"==","default_left":false,"missing_type":"None","internal_value":-0.00728986,"internal_weight":3038.08,"internal_count":21973,"left_child":{"leaf_index":3,"leaf_value":-0.0037027766693169457,"leaf_weight":792.8246315121651,"leaf_count":5722},"right_child":{"leaf_index":15,"leaf_value":-0.008497098181530492,"leaf_weight":2245.255909897387,"leaf_count":16251}},"right_child":{"leaf_index":14,"leaf_value":-0.010816601577688956,"leaf_weight":1520.915177255869,"leaf_count":10877}},"right_child":{"leaf_index":10,"leaf_value":-0.01185569465740393,"leaf_weight":2986.553190074861,"leaf_count":21696}},"right_child":{"split_index":11,"split_feature":6,"split_gain":17.715900421142578,"threshold":-0.5744950538413363,"decision_type":"<=","default_left":true,"missing_type":"None","internal_value":-0.00392557,"internal_weight":6380.7,"internal_count":45222,"left_child":{"leaf_index":5,"leaf_value":-0.004867139856485622,"leaf_weight":4715.62480661273,"leaf_count":33536},"right_child":{"leaf_index":12,"leaf_value":-0.0012215407028382138,"leaf_weight":1665.0730998665094,"leaf_count":11686}}}},"right_child":{"split_index":1,"split_feature":6,"split_gain":874.3150024414062,"threshold":0.12146330958399161,"decision_type":"<=","default_left":true,"missing_type":"None","internal_value":0.0118671,"internal_weight":18163.1,"internal_count":121714,"left_child":{"split_index":6,"split_feature":5,"split_gain":89.68389892578125,"threshold":2.0750000000000006,"decision_type":"<=","default_left":true,"missing_type":"None","internal_value":0.00618499,"internal_weight":10428.8,"internal_count":70441,"left_child":{"split_index":12,"split_feature":5,"split_gain":15.361900329589844,"threshold":1.925,"decision_type":"<=","default_left":true,"missing_type":"None","internal_value":0.00885,"internal_weight":5444.71,"internal_count":36113,"left_child":{"leaf_index":1,"leaf_value":0.01045751215265498,"leaf_weight":2792.202936001122,"leaf_count":18188},"right_child":{"leaf_index":13,"leaf_value":0.007114554181854814,"leaf_weight":2652.5023267939687,"leaf_count":17925}},"right_child":{"split_index":15,"split_feature":4,"split_gain":10.514399528503418,"threshold":0.9700736977517729,"decision_type":"<=","default_left":true,"missing_type":"None","internal_value":0.00325517,"internal_weight":4984.12,"internal_count":34328,"left_child":{"leaf_index":7,"leaf_value":0.004661503633468085,"leaf_weight":2460.6698441803455,"leaf_count":16945},"right_child":{"leaf_index":16,"leaf_value":0.0018556531770600726,"leaf_weight":2523.451554208994,"leaf_count":17383}}},"right_child":{"split_index":3,"split_feature":6,"split_gain":225.1479949951172,"threshold":0.5720361981875742,"decision_type":"<=","default_left":true,"missing_type":"None","internal_value":0.0195088,"internal_weight":7734.3,"internal_count":51273,"left_child":{"split_index":8,"split_feature":5,"split_gain":22.901599884033203,"threshold":1.635,"decision_type":"<=","default_left":true,"missing_type":"None","internal_value":0.0163214,"internal_weight":5634.98,"internal_count":37422,"left_child":{"leaf_index":2,"leaf_value":0.018492271654482466,"leaf_weight":2642.625201970339,"leaf_count":17425},"right_child":{"leaf_index":9,"leaf_value":0.014344990681006737,"leaf_weight":2992.3500965237617,"leaf_count":19997}},"right_child":{"split_index":7,"split_feature":5,"split_gain":34.156700134277344,"threshold":1.3450000000000004,"decision_type":"<=","default_left":true,"missing_type":"None","internal_value":0.0279485,"internal_weight":2099.32,"internal_count":13851,"left_child":{"leaf_index":4,"leaf_value":0.03290951848965823,"leaf_weight":878.0574038997293,"leaf_count":5731},"right_child":{"leaf_index":8,"leaf_value":0.024154128975961437,"leaf_weight":1221.2627808079123,"leaf_count":8120}}}}}},{"tree_index":15,"num_leaves":18,"num_cat":3,"shrinkage":0.03,"tree_structure":{"split_index":0,"split_feature":5,"split_gain":5163.240234375,"threshold":2.3950000000000005,"decision_type":"<=","default_left":true,"missing_type":"None","internal_value":-1.0324899999999998e-05,"internal_weight":37792.7,"internal_count":265592,"left_child":{"split_index":1,"split_feature":0,"split_gain":787.8599853515625,"threshold":0.5433090046731591,"decision_type":"<=","default_left":true,"missing_type":"None","internal_value":0.0117313,"internal_weight":17809.9,"internal_count":118984,"left_child":{"split_index":6,"split_feature":6,"split_gain":103.30500030517578,"threshold":-0.10033962637983825,"decision_type":"<=","default_left":true,"missing_type":"None","internal_value":0.00671513,"internal_weight":10936.8,"internal_count":73487,"left_child":{"split_index":11,"split_feature":5,"split_gain":15.286399841308594,"threshold":2.1250000000000004,"decision_type":"<=","default_left":true,"missing_type":"None","internal_value":0.00410011,"internal_weight":6104.66,"internal_count":41513,"left_child":{"leaf_index":0,"leaf_value":0.006048778008425428,"leaf_weight":2300.6576329395175,"leaf_count":15448},"right_child":{"leaf_index":12,"leaf_value":0.0028995269120050816,"leaf_weight":3804.000570528209,"leaf_count":26065}},"right_child":{"split_index":13,"split_feature":6,"split_gain":9.855119705200195,"threshold":0.01053727031165595,"decision_type":"<=","default_left":true,"missing_type":"None","internal_value":0.00999724,"internal_weight":4832.17,"internal_count":31974,"left_child":{"leaf_index":7,"leaf_value":0.008267815087356797,"leaf_weight":2071.1544978171587,"leaf_count":13726},"right_child":{"leaf_index":14,"leaf_value":0.011250668004551016,"leaf_weight":2761.0197654291987,"leaf_count":18248}}},"right_child":{"split_index":3,"split_feature":0,"split_gain":184.58999633789062,"threshold":0.6708470270708767,"decision_type":"<=","default_left":true,"missing_type":"None","internal_value":0.0196899,"internal_weight":6873.03,"internal_count":45497,